[[-0.12987435  0.00803321 -0.12864515 -0.00141319 -0.2540605  -0.00722591
  -0.28515524  0.54630417  0.01497025 -0.0106921   0.80803776 -0.0038279
   0.27249825  0.00802451  0.03396055 -0.00143217 -0.81931996  0.08159943
   0.01541492  0.00949424 -0.01274808]
 [-0.00259277 -0.02273708  0.8497822   0.00100998  0.19894925 -0.01001313
   0.00301078 -0.00539988 -0.00917898  0.00431903  0.23123369 -0.00839091
   0.00349256 -0.00188049 -0.01006029  0.01014389  0.08034443  0.9945158
  -0.00088143  0.02716493  0.01144469]
 [ 0.00701746  0.0151247  -0.00918432 -0.00951198  0.01307325 -0.07759017
  -0.06973416  0.0109323   0.05981717 -0.11334242 -0.03082845 -0.00709975
  -0.05536075  0.04176255  0.01297484  0.01532881  0.00196238  0.01065487
  -0.02252217 -0.0970116  -0.31853443]
 [-0.00123803  0.01101192  0.03608767  0.00250421 -0.27663976  1.0139661
   0.02704439 -0.01063519  0.00675844  1.1745332   0.01150247  0.00982888
  -0.00184517  0.01827731 -0.02185182  0.03453365 -0.01201553  0.01970637
   0.00178496 -0.00639481  0.7382338 ]
 [-0.00806814  0.00927354 -0.02603036 -0.01177317 -0.19652605 -0.13166757
  -0.2688497  -0.0291718  -0.00033799 -0.02052682 -0.02698297  0.01981887
  -0.05634678  0.01235312 -0.11931818  0.11212842  0.01243315 -0.01208582
  -0.04623393 -0.05661687 -0.09766138]
 [ 0.00675435  0.9709774  -0.01579766  1.1284043  -0.08940678  0.00698899
   0.18170819 -0.00845302  0.03298863 -0.00049703  0.15955207 -0.01441811
  -0.00958211  0.01298268  0.00417155 -0.00587679  0.099675   -0.02093752
   0.01487536 -0.00594199  0.00865711]
 [-0.00679641  0.39417765  0.01257727 -0.07928618  0.30622476  0.00715308
   0.03004095 -0.02283068  0.8186494  -0.00154778 -0.01938117  0.0050631
  -0.0039362   0.01488591 -0.01677805  0.01863425  0.04112586  0.00118983
   0.02060282  0.8837835   0.02996036]
 [ 0.663121    0.00021948  0.00719821 -0.00333709  0.18707418 -0.00963367
  -0.08302188 -0.01631731  0.0108124  -0.00436857  0.00580903  0.8728407
   0.67493457 -0.01403417 -0.04322317  0.00056986  0.0071302   0.00354624
   0.01947432 -0.02248788  0.00209681]
 [ 0.06011746 -0.06384477  0.02249549  0.03109351 -0.17182195  0.0468211
  -0.05311313  0.06212876 -0.13270497 -0.10233906 -0.02383262 -0.15164495
   0.06550261 -0.04139725  0.04959036 -0.1362091  -0.00132497 -0.02758597
   0.04895328  0.44749773 -0.29418364]
 [-0.03658107 -0.04484092  0.04944378 -0.02500292 -0.23545872 -0.12170665
  -0.33252263  0.03438594 -0.02025741  0.01228048 -0.00014697 -0.01908442
   0.03587922 -0.10827942 -0.0975102  -0.06085553  0.13061987  0.08472072
  -0.00557098  0.08633281 -0.03859428]
 [ 0.01936764  0.03233426  0.01935373 -0.01599686 -0.14209963 -0.0158909
   0.17790034  0.04023365 -0.00173186 -0.04374567  0.08708744  0.0236976
  -0.0035584  -0.06691434  0.08581414  0.07283912  0.00823318 -0.00842219
   0.03229549 -0.0670152  -0.20359074]
 [-0.0021303   0.01128546  0.00617447  0.01765472  0.35668796 -0.05619828
  -0.3055796   0.00737281  0.01103387 -0.08349662  0.00854323  0.03650785
  -0.06001853 -0.02940052  0.03348001  0.13822062 -0.01388611  0.00924924
  -0.09061278 -0.09227458 -0.22565277]
 [ 0.00598924  0.0405119   0.01846018 -0.00630921 -0.08030223 -0.03040542
  -0.16458943  0.03211574  0.02792527 -0.10437807 -0.01592458 -0.00272986
  -0.0493515   0.01528669  0.04655406  0.01993982 -0.00374625  0.01349436
  -0.02013319 -0.07189303 -0.28787246]
 [-0.04611797 -0.00824304 -0.16860081  0.03789017 -0.02998821 -0.19319908
   0.2251729  -0.07555071 -0.02801503 -0.0494063   0.21012898  0.36105254
  -0.38032037  0.18870945  0.3275574   0.65545386 -0.08549935 -0.02757346
  -0.40808475  0.8153076  -0.23919287]
 [-0.01200908  0.05101242  0.10091926  0.45596176 -0.0614155  -0.20956819
  -0.2324277   0.4292435   0.07304469  0.2543996  -0.16645864 -0.02603327
   0.41126218  0.29383042  0.24635011  0.06272877  0.00917806 -0.16377674
  -0.41573125 -0.13819657  0.06417497]
 [ 0.0402433   0.07617772 -0.15665224 -0.08458715 -0.04298061  0.08823457
  -0.21790569  0.08005221  0.03412611 -0.04456004 -0.07646482  0.04085519
   0.00509624  0.0891546   0.17631297  0.05762125  0.23751068 -0.05575743
   0.27568433  0.11531299 -0.19398755]
 [ 0.00079209 -0.00783548 -0.01339768 -0.00680073 -0.2622926  -0.2827613
  -0.3313862  -0.00519639 -0.00266391  0.01637049 -0.01391207 -0.00284141
  -0.01113511 -0.8097123   0.05021086 -0.7999294   0.02317973 -0.01938113
   0.00203643  0.02763767 -0.00137418]
 [-0.35094428 -0.01987008 -0.26108477  0.25139734 -0.2262576   0.19339508
  -0.21098927 -0.336626   -0.18989524 -0.23799329 -0.30571923  0.23432747
   0.09656335  0.28712544  0.228442    0.15531272  0.22604269  0.07811429
   0.31575257 -0.039535    0.24962522]
 [ 0.17610563 -0.18898976  0.20873733 -0.32143104 -0.08604926  0.16775522
  -0.31615454  0.18569857  0.01797981  0.30829468  0.31788763 -0.41500315
  -0.06417011  0.4033561   0.17954847  0.19688107  0.27515084 -0.37474868
   0.10343684 -0.39636213  0.30096778]
 [ 0.03830406  0.00735269 -0.01878621  0.00688993  0.14568867 -0.00125416
   0.01484102 -0.3526759   0.00213361  0.01162542  0.08171915  0.0026922
  -0.11693237 -0.11292878 -0.8724036  -0.01600001 -0.16172501  0.01327058
  -1.110871    0.06034172 -0.02202907]
 [ 0.40410653  0.01198894  0.03660399 -0.00368998 -0.31437173  0.00264081
  -0.3381587   0.68221855  0.01612784  0.05191435  0.02582862 -0.03186778
  -0.4675517   0.06267707  0.47881418  0.05216727 -0.12333208  0.03253319
  -0.3694064   0.01839449  0.09563069]]
[-0.05224372 -0.1511018   0.01118381 -0.02390404 -0.02084358 -0.07219301
  0.         -0.00865753  0.13560322  0.07712814  0.00293749 -0.05324263
 -0.05152253  0.04396104 -0.01948692  0.24406068 -0.00176512  0.00088166
  0.08163947 -0.09606045 -0.00863917]
[[ -0.00123348  -0.05198407  -0.00202318  -0.00063684  -0.00955969
   -0.06118025   0.09655935   0.03565669   0.01265579  -0.08017851
    0.02317462  -0.00793631  -0.00978685   0.00799499  -0.01558368
    0.00650945   0.06569425  -0.06600018   0.00995085   0.0442444
   -0.04270129  -0.03274489   0.08868194   0.0032284   -0.02257447
   -0.05849831   0.00296369  -0.03834227  -0.01840218   0.01889394
    0.01011914   0.00403264  -0.00282735  -0.01171971  -0.8372929
   -0.0186829   -0.53506994  -0.02551967  -0.1218742    0.00341278
    0.00478056   0.01380428   0.9266856   -0.00464805   0.00568211
   -0.00061917   0.02987801  -0.06578624  -0.00188275   0.2584369
   -0.01101266   0.01016548  -0.01042777   0.9956713    0.0046086
   -0.01078285  -0.00729263  -0.02654714  -0.02408947  -0.01372016
   -0.10161446  -0.00704837  -0.18274838   0.20130299   0.01070272
   -0.2289809    0.00951249  -7.172685     0.00140778   0.0289288
    0.00231372   0.00383261   0.04004446   0.5431174   -0.00228895
    0.01041365  -0.042273     0.01410386   0.00724379  -0.00378725
   -0.19975133  -0.00388962   0.01282104   0.00126779]
 [  0.01655863  -0.01103918   0.00252622  -0.01080313   1.0337675
    0.04350681  -0.04254644   0.0193011   -0.03693961   0.00893947
    0.02647927   0.00120325  -0.00826788   0.01143279  -0.02836758
    0.00071429   0.01568257  -0.02245665  -1.8069386   -0.05360461
    0.0441759    0.01203547  -0.03940788  -0.04183474   0.09156702
   -0.0107784   -1.1129231    0.02134861   0.02016111   0.01526786
    0.00502315  -0.0020423    0.00092389  -0.01155947  -0.00703925
   -0.00248566   0.00571035   0.0020028    0.00109282   0.0040106
    0.0169917   -0.02910999   0.00013531  -0.01353821  -0.12147419
   -0.00671532   0.00534343   0.0181748   -0.00278087  -0.00467047
   -0.04141913   0.8071569   -0.01416378   0.00612217  -0.01352982
   -0.06153504  -0.01931516  -0.00472679   0.0017108   -0.00176688
   -0.00558358  -0.00106233  -0.00428397   0.0304614    0.01112669
    0.01791163   0.00984886   0.0102348    0.00655004   0.63525
   -0.5346372    0.00070617   0.03118853   0.00119015   0.71562546
    0.01824881   0.00075281  -0.0795732   -0.0086915   -0.05660576
   -0.00291107   0.00891591   0.9337898    0.00300835]
 [  0.3032199   -0.03336385   0.01741094   0.02348533   0.00055513
    0.05867457  -0.03100814  -0.00895545  -0.0613149    0.07022725
    0.0014617   -0.00975889   0.00338581  -0.00702715  -0.03789879
    0.9648369    0.00238456  -0.01722501   0.00370887  -0.08401417
    0.964837     0.04767707  -0.01243694   0.01231895  -2.3476365
   -0.00021489  -0.0130192    0.94058526  -0.00771519   0.01109744
   -0.00835786  -0.01225731   0.00079316  -0.00749082  -0.00640822
    0.01018508  -0.01330161   0.00857275   0.00483948  -0.00456546
    0.029431     0.00064979  -0.02603004  -0.00626181   0.00528027
   -0.00650515   0.00186257  -0.01576986  -4.0944576   -0.01718678
    0.0006285    0.01068777  -0.00224106  -0.01039949   0.01140776
    0.00114865   0.00726236  -0.04279235  -0.04320252   0.00049595
   -0.05936239  -0.00164477   0.00107284  -0.01192134  -0.01131369
    0.00608951  -0.09186295  -0.00156531  -0.00718127   0.02217407
    0.00781236   0.00947969   0.02555272  -0.00086004  -0.00230795
   -0.27201173   0.00455044  -0.04661265  -0.00766961  -0.5251898
    0.00822762   0.01397964  -0.00467562  -0.01342481]
 [ -0.00557011  -0.02675671  -0.0005538    0.00793063  -4.7627816
    0.01226409  -0.05724177  -0.00366979  -0.05928681   0.01235646
    0.00359717   0.00265476   0.00821731   0.02419914  -0.01092743
    0.015493     0.0025608   -0.0104251   -0.19234666  -0.06609786
   -0.01763975   0.00680938  -0.06894697   0.01269106  -0.01500859
    0.01316774 -14.167818    -0.01538425   0.0349902   -0.00224832
   -0.01553337   0.00342774  -0.01042783   0.00542503   0.00661261
   -0.00760949   0.01210775   0.01219997   0.00724133  -0.00674583
    0.02246455  -0.04314621  -0.01139735  -0.00372247   0.8964725
   -0.0056209   -0.00613744   0.00434611   0.08348855  -0.00003739
    0.07654298  -0.6288372    0.00225874   0.0163755    0.00322472
    0.5090974    0.8244639    0.00505946  -0.03294837  -0.01021994
   -0.02264955   0.0074584    0.01486896  -0.02762406   0.0123381
    0.00095506   0.00595377   0.00017356   0.01480271  -0.07760781
    0.50109714   0.00088366   0.01791782  -0.00037464  -0.6405924
   -0.02167104  -0.00371669  -0.10882164   0.00416966   0.08861631
   -0.00200336   0.0161958   -0.12385543   0.02942547]
 [ -0.16907132   0.16558333  -0.06445469   0.19660246   0.03159878
    0.11757474  -0.24282433  -0.21651493   0.19619459  -0.13545138
    0.01730661   0.04975526   0.0088161   -0.1887186   -0.04344058
   -0.0039841    0.17931166   0.11173451  -0.11551577   0.0688514
    0.07983387   0.02912188   0.13124724  -0.18887423   0.21646976
   -0.17736158  -0.15878104   0.08449603  -0.13362467  -0.15508184
    0.02750618  -0.16374359   0.2027236    0.12231099  -0.07577974
    0.04882464   0.16481243  -0.07695922  -0.10264269   0.08826907
    0.2133665    0.08775066  -0.00514111  -0.1520119    0.19074428
    0.12547408  -0.12165938  -0.0299594   -0.174339    -0.21816485
   -0.10556175  -0.15996727  -0.09553328   0.03706047   0.01660269
   -0.08560556  -0.0470633    0.167101    -0.22227137  -0.05971175
    0.0162618   -0.17521796  -0.23207593   0.05394274   0.00361465
   -0.12307414  -0.06489149   0.21179517   0.1517013    0.13887282
    0.14645152   0.212537    -0.1345147    0.0889032   -0.06716131
   -0.18546587   0.22068639   0.00271925  -0.1205548   -0.21388374
   -0.16534352  -0.14414681  -0.19340414   0.07604013]
 [ -0.00224716  -0.00088808  -0.01276596  -0.09930266   0.00786536
   -0.00198199  -0.00809342  -0.00208163  -0.00418977   0.01343233
   -6.284659    -0.14420801   0.00147538   0.59331626   0.01078474
   -0.01671761  -0.0215933    0.00024473   0.00021101  -0.00096716
   -0.00076794   0.00587521   0.01144741   0.00177637   0.00319961
    0.0093361    0.00530023  -0.0019203   -0.00578027   0.85762006
   -0.0110246   -0.00539767  -0.01519781   0.00224086   0.00117389
   -2.8726854    0.00705044  -0.11197663  -0.00442337   0.7740121
   -0.00825876   0.00146435  -0.0019632   -0.0097713    0.00400062
    0.00627723   0.0080674    0.02583277  -0.00162848  -0.00111494
   -0.01697932  -0.00087122  -0.02800323  -0.00587549   0.00014135
   -0.00426573  -0.00176182  -0.0074702    0.00204686  -0.00405227
    0.01333284  -0.13948931  -0.0047764   -0.00848597  -3.380241
   -0.01654751  -0.00775994   0.00380082  -0.01024585  -0.00955442
    0.01000525   0.7799341   -0.14310554   0.00098963   0.00258104
    0.00602637   0.00210907   0.00803405   0.00426395  -0.00639499
    0.00451927  -0.15959796   0.00139227  -0.01443077]
 [  0.08661817   0.03651579  -0.01875678  -0.1576251    0.02098577
   -0.12883545  -0.08121061  -0.13453406  -0.09101038  -0.10994662
    0.08641742  -0.09226507  -0.12632537   0.125331    -0.03321713
    0.23818569  -0.04281989  -0.2096923   -0.19411825  -0.17157212
    0.23343779   0.12884058   0.09604029   0.08485012   0.06801032
    0.16657121  -0.12846294   0.07034068   0.09057187  -0.17548805
   -0.17600024  -0.00161296   0.16415529  -0.07265021  -0.06759135
   -0.09851407   0.09562676  -0.1599935   -0.23539783  -0.21950644
    0.05451836  -0.04439157   0.22170646   0.23238228  -0.10115752
    0.08560403  -0.17445089  -0.00801252   0.05108814   0.00152171
   -0.13784719   0.09108852   0.11845179   0.12166722   0.19281943
    0.0458882   -0.10015848   0.16563432  -0.05060625   0.0860142
   -0.00745752   0.21384247   0.18246625   0.10428186   0.03848709
    0.15107365   0.04229994  -0.236623    -0.07648173   0.08813451
    0.22655903  -0.10411072   0.05634789  -0.06298865  -0.19723234
   -0.16923752   0.06854893  -0.01360039  -0.22679725   0.06723155
    0.11082922  -0.07950304  -0.19036263  -0.08868113]
 [ -0.00684616   0.897152    -0.01363054  -0.03072103  -0.00731784
    0.10374386  -0.09341708  -0.07130526  -0.02820848   0.74393153
    0.02461651   0.03939974  -0.00837094   0.03407081  -2.9997842
   -0.04454693  -0.3355427    0.8529095   -0.00475715  -0.14251325
    0.03918874   0.9046106   -0.18755172  -0.00478931   0.00417875
   -0.00269023   0.01032746   0.00158807  -0.45576364   0.00079604
   -0.01089366   0.00326982  -0.01427918  -0.01985335   0.03069592
   -0.04046027  -0.00856707  -0.05626126   0.02149482   0.02131437
    0.06050904  -0.00737757  -0.13015698  -0.01107089   0.00484999
   -0.00157171  -0.01553856  -0.36978787  -0.00679261  -0.03789958
    0.00271534   0.01650136  -0.02840541  -0.01518288   0.00134399
   -0.00455474  -0.0075699   -0.04851502   0.25865898  -0.03896612
    0.3509232   -0.01666015   0.03179096   0.04533747  -0.01752543
   -0.14007303  -0.03723248  -0.02175635  -0.04718676  -0.01560818
    0.00897243   0.02430656   0.06453204  -0.08212395  -0.00481409
   -0.02269553   0.02506941   0.01406606  -0.00196226  -0.01927041
    0.05290647   0.01677389   0.03133645   0.02306983]
 [  0.0063241    0.00030913  -0.00500325   0.01282739  -0.422287
    0.00707608  -0.00406236  -0.01335508   0.00223963   0.00645695
   -0.00864088   0.00628887   0.14456455   0.01015489  -0.00810896
    0.00258982  -0.0149383   -0.00391777  -0.37560964  -0.00617939
    0.01007011  -0.00265102   0.00236182   0.9019093   -0.0169769
   -0.00990405   0.06030358  -0.01593214  -0.01816788   0.00673394
    0.02305674  -0.00120808   0.00699631  -0.00149199  -0.02043445
    0.0036435   -0.00633102  -0.02117017  -0.00210548   0.01224622
    0.00662666   0.87473387  -0.01118246  -0.00583995   0.05935596
    0.00100076  -0.00562734   0.01203668   0.00343038  -0.0169345
   -0.15293285  -0.01596631  -0.02483888  -0.00747431   0.95356125
    0.00634171   0.03412089  -0.01155617   0.01078743   0.00432945
   -0.00840584   0.01500075  -0.01411287   0.01187329  -0.00132974
    0.00677986  -0.00658946   0.00038163  -0.01523171  -0.14356461
   -0.14650348   0.00405516   0.01046897   0.00478052 -11.192793
   -0.00642026  -0.00562897  -0.00316777  -0.00201315   0.00557666
   -0.00875369   0.00509185  -0.13338858  -0.01488288]
 [ -0.00985109   0.00287801   0.74407613   0.1738123    0.01218432
   -0.0106658   -0.00451947  -0.0063935   -0.00305072  -0.00420772
   -0.21851493  -0.9434541   -0.00148109  -3.2390587    0.01208085
   -0.01563232  -0.0078566    0.00717661  -0.00623239  -0.00202742
    0.00363179   0.00200901  -0.01052992   0.00013731  -0.00940694
   -0.01023002   0.00731582   0.00544283  -0.00954914  -0.72013956
   -0.01234653   0.4087236   -0.0120212   -0.00105127   0.00974397
   -0.29076484  -0.00005172  -2.3977706   -0.00669602  -0.03518199
    0.01688106   0.00408652   0.00214301  -0.00668145   0.00540935
    0.43497196   0.40672162   0.00486691  -0.00567487  -0.0044432
   -0.01656884  -0.00234238  -0.46946228  -0.00484235  -0.0060046
   -0.00086874  -0.00720711  -0.05476629   0.017458    -0.00338799
   -0.00466411  -4.1165004   -0.00576175   0.02648568  -0.20305404
    0.0062354   -0.00704526  -0.00170485  -0.00554216  -0.00632381
    0.00060552  -0.6440781   -7.104465     0.00787097  -0.00031429
    0.00138569   0.00290014  -0.00520174  -0.00373178  -0.00147254
   -0.01322529  -1.9399406   -0.00954205  -0.00116179]
 [ -0.03856522  -0.0006909   -0.00352013  -0.02822838   0.00508181
  -10.757472     0.6311592   -0.01201349   0.67515564  -0.17212673
    0.00045388  -0.00143179  -0.00131544  -0.01094524  -0.07492164
   -0.02975294  -0.00643098  -0.00747737  -0.00337471   0.7695735
    0.02948502  -0.09835272   0.64714146  -0.00080612  -0.31628406
    0.00659615   0.00643703  -0.05640655  -0.00435978   0.00004595
   -0.00857017   0.00118225  -0.00357248  -0.00511013  -0.00051851
   -0.0188521    0.00457413  -0.01505471   0.00828368  -0.0034578
   -0.05160995  -0.00451283   0.03295888   0.0053929    0.00324181
   -0.00515645   0.00456432  -0.01978556  -0.34941638  -0.0055103
    0.00848173  -0.00545692   0.00402265   0.01131182  -0.02687204
   -0.00200935   0.00340201   0.01150044  -0.12635013  -0.01132867
   -0.09974461  -0.01273874   0.0115458    0.00554347  -0.0004838
   -0.03370038  -0.0276047    0.01181359  -0.01562777  -0.0199932
   -0.0066681   -0.00047556  -0.00090355  -0.01806975  -0.00142278
   -0.009008    -0.03057587   0.68876666  -0.02190734  -0.25561917
   -0.06952826  -0.00321892  -0.01203959  -0.00120899]
 [ -0.00144895  -0.01806315  -0.00773633   0.02431217  -0.01788399
   -0.00821628   0.02849823  -0.02539056   0.00714271   0.01676797
   -0.03563333   0.00676014  -0.00033003   0.02549354  -0.01390346
    0.00636592  -0.01598383  -0.01670339   0.00127993  -0.02041768
    0.01755125   0.00847711  -0.00182951  -0.02464362  -0.01188746
    0.9813861    0.00617678   0.00142949   0.00149911  -0.0164977
    0.03082892  -0.00261528  -0.00775706  -0.01378444  -7.914844
    0.00573497  -1.8484954    0.01349797   0.7493313   -0.00146511
   -0.15367691  -0.03323802  -0.29742852   0.00935253   0.00345651
    0.00607183  -0.00369568   0.06141287   0.01043798   0.44671768
    0.04586944  -0.00939102  -0.01031496  -0.18335538  -0.0309639
    0.01107195   0.00655358  -0.01174478  -0.03039611   0.03560754
   -0.04923645   0.0118449    0.7066227   -0.01336535   0.00043675
   -1.0732218   -0.01444022  -5.8582635    0.01338779  -0.01773356
    0.01047535   0.00016858  -0.01107273  -6.3274636   -0.00102769
    0.01001178  -0.10996584  -0.00082647  -0.00028164  -0.00927798
   -0.45269242   0.01016068  -0.01522436  -0.01038826]
 [  0.00319204   0.08358089   0.00507285   0.02852427   0.01040998
    0.07421478  -0.09392617  -0.0452218   -0.00506384   0.07475916
    0.01901232   0.00279443  -0.00023682  -0.01532019   0.0720908
   -0.00225152  -0.06799942   0.12551454  -0.0037192   -0.05966645
    0.03954146   0.00530775  -0.11553961   0.01640807  -0.00017451
   -0.03143071   0.00353612   0.00966092  -0.00514647  -0.00407438
    0.01642948   0.00073613   0.00245796   0.04002542  -0.6256429
   -0.01321486  -0.48835567  -0.00008568  -0.09948092  -0.0170814
    0.81844884   0.00696961  -0.03948948   0.00007126  -0.00362956
   -0.00294102  -0.01766516   0.08399467   0.01977159  -0.18759093
    0.00152087   0.0015943    0.01019058  -0.01083827  -0.03333731
   -0.00297323   0.00600342   0.04685464   0.07918052  -0.00413238
    0.16942541  -0.01422946  -0.11476102  -0.23176388   0.00562194
   -7.194285    -0.01703667  -0.41637614   0.01949305   0.0036615
    0.00023348  -0.00062096   0.00913185   0.514476     0.00434702
   -0.02427014   0.73492634  -0.02434866  -0.00089414  -0.0156421
    0.8472884    0.00174791  -0.01336532   0.00308123]
 [  0.00486813   0.03694656  -0.00330406  -1.9510612   -0.00554431
    0.00054414   0.00102565   0.00873744   0.03340423  -0.01030098
   -6.8020835    0.02298868   0.00357804  -0.14401014  -0.01468975
   -0.004084     0.05302327  -0.0286253    0.01982806  -0.01837992
    0.00817924   0.00828281   0.00304578   0.0020059   -0.00092323
    0.00324324  -0.00428982  -0.00026735   0.00733072  -0.05431808
    1.1229075    0.00900405   0.9306027    0.01020026   0.0258108
    0.05611379   0.00566155  -0.01203245   0.00582617  -0.0287003
   -0.01183239  -0.00799404   0.00393646  -0.0042111   -0.00399374
    0.00474896   0.01172021   0.00861047  -0.01042014   0.00329093
    0.00993601   0.00080539   0.01621812  -0.00386087  -0.0122897
   -0.00011396  -0.00121109   0.00456149   0.01482742   0.01071923
    0.00251449  -0.01591324  -0.00127843  -0.01742604  -0.9514865
    0.01518794  -0.01023691   0.01175868  -0.11571342   0.00541347
   -0.00872134  -0.0790227    0.07547662  -0.01458301  -0.00152752
   -0.00340901   0.01051147   0.00615041   0.00776141   0.0050721
   -0.00645561   0.02386777  -0.01394043  -0.05100111]
 [ -0.00042875  -0.14846857   0.01699831   0.0578842    0.00613227
    0.00870834   0.04540854  -0.8982538   -0.05471706  -0.11751691
    0.00116291   0.00608992   0.00031325   0.02951128  -0.10842892
    0.00165192  -1.5017693   -0.10310633  -0.00552609   0.08639159
   -0.00826491  -0.27149785   0.03956803   0.00702082  -0.01516585
    0.02116381  -0.00032291  -0.03478457  -4.2827682    0.00866781
   -0.01408482  -0.00416293  -0.0157371    0.19467422   0.02100271
   -0.06016882   0.01330009  -0.05482931   0.02618625  -0.00302709
   -0.03514755  -0.00267874  -0.00424019  -0.03508607   0.0044908
    0.00964942  -0.00123753   1.183608     0.01070875  -0.0035973
    0.01169171   0.00896684  -0.01865556   0.03362273  -0.00514385
   -0.01306266   0.00842271  -0.03004091  -0.02215796   0.500969
   -0.09906332   0.02500442   0.00552491  -0.22750092   0.01727873
    0.3093166    0.02305507  -0.24426244   0.04159696  -0.00121306
    0.01281426   0.00510804   0.01987329  -0.04094869  -0.00801822
    0.01770698  -0.03252391  -0.00295424   0.00707336   0.00101687
    0.04876513  -0.00277944   0.00889152   0.02912812]
 [ -0.01365191   0.00400243   0.00246792  -2.4715574   -0.0222546
    0.0074379    0.00464574  -0.03388039   0.02215676   0.00747921
   -7.118415     0.00129281  -0.0045918   -0.15884314  -0.01410072
   -0.00109399   0.02564385  -0.03483711   0.00072177  -0.03859241
    0.00219602  -0.00010966   0.02690484  -0.02199383   0.00124778
   -0.02034014   0.00848026  -0.00748445   0.01215683  -0.06761622
   -0.21089098   0.02128419  -0.13389465   0.0034918    0.02891205
    0.02296571  -0.00448409   0.01205508  -0.00736895  -0.05952334
   -0.00182619  -0.02172533  -0.00336473   1.2120658    0.01277973
    0.01115215   0.00810994   0.02379821   0.0014712   -0.00338941
    0.04237752  -0.00246797   0.02120706  -0.00529129  -0.01531179
    0.00772204  -0.00409525  -0.02030484   0.01655518   0.02937524
    0.01144589   0.00176171  -0.00638208  -0.00492108  -0.7708541
    0.01093439  -0.00404961   0.00831605   0.9979898   -0.01056668
   -0.00143557  -0.06564464   0.02978982  -0.01565335   0.00000289
    0.00011684  -0.00172912   0.01338632  -0.00226385  -0.01228432
   -0.00107075   0.0016626   -0.00623455   0.79348284]
 [ -0.04477201   0.6757188   -0.00378463   0.01323404   0.01431117
   -0.27807412  -0.03629981  -0.03409839  -0.2062979   -0.02403555
   -0.00711436  -0.01082655   0.00109659   0.00205048   0.71454555
   -0.08863237  -0.11466131   0.3827223   -0.00179849  -0.06812396
   -0.06621017   0.00617633  -0.07671198   0.01122732  -0.3177578
   -0.01551369  -0.00453149  -0.05880544  -0.20011277   0.00220263
   -0.00426811   0.00383583   0.00589779   0.01049221   0.0023017
    0.02153731  -0.03433227  -0.00478031   0.01306588   0.00656549
    0.13473713   0.00707656  -0.07746229  -0.00221759   0.00190218
   -0.00417977   0.0039853   -0.01276442  -0.3398426   -0.0941174
    0.02509076   0.00680796  -0.00626853   0.01140662   0.01876512
    0.0001068   -0.01084729  -0.02360043   0.8257587    0.01787165
    0.7482605   -0.0035523    0.01828874  -0.105391    -0.02127569
   -0.03777371   0.06115972  -0.07389043  -0.02767583  -0.02520015
   -0.013678    -0.00125402   0.00889323   0.03204678   0.00008973
    0.099193     0.01318276   0.69335866   0.000334    -0.25335374
    0.04175528  -0.01283475  -0.00036387   0.0006066 ]
 [  0.28979367  -0.035761    -0.01694845   0.01457459  -0.02393497
   -0.01777589  -0.15047714  -0.0063814   -0.10400458  -0.0271478
    0.00873589  -0.00771275   0.00005025   0.00319783  -0.01358994
   -0.79970133   0.00937971  -0.01025209   0.01251156  -0.13976243
   -0.06772321  -0.01405914  -0.13258792   0.00602322  -6.6373167
    0.00149778  -0.01558481  -0.7135661    0.00809871  -0.00256466
    0.00590977  -0.00060161   0.00369245  -0.00548453   0.00811058
   -0.01772975  -0.00151255  -0.00351589   0.00897537  -0.00041099
   -0.02220326  -0.00424821   0.02884979  -0.01387821  -0.00603264
    0.01566408   0.00397849   0.0200222   -4.580799    -0.0009042
    0.00537881  -0.00069417  -0.00726311   0.00257754   0.00310973
    0.00156986  -0.00433406  -0.00569354  -0.02122963  -0.00586983
    0.00829116   0.00552294   0.00232261  -0.01291612   0.01730139
    0.02552862   0.91847396  -0.01651249  -0.01813949  -0.00118513
   -0.01711016   0.00289203   0.00927711   0.01599744  -0.00333692
    0.7076502   -0.0071083   -0.07238745   0.6854266   -0.6166507
   -0.01728353   0.00547935  -0.0060097   -0.01060809]
 [  0.01238593  -0.0512033    0.01152174   0.08453569   0.02039673
   -0.01467373   0.05558809  -4.666794     0.13105217  -0.07961253
    0.00260719  -0.00000346   0.00989082   0.00336075  -0.02147889
    0.01806712  -6.488897    -0.07918242   0.00328962   0.07882574
   -0.00293315  -0.19760719   0.06107124  -0.00117557   0.00128774
   -0.00837046  -0.00954564   0.02640098  -6.6601777   -0.02749577
   -0.1192277    0.00541195  -0.05166803   1.0932226    0.00808867
   -0.00260844   0.02469081   0.02573887   0.00970217   0.00781892
   -0.09013335  -0.00881014   0.07548652  -0.03569725   0.01501808
   -0.00331403  -0.00522516  -0.1997887    0.02453      0.04812484
    0.03282439  -0.00592635  -0.0082796   -0.01710492  -0.01624421
   -0.00331589   0.01673464   0.00223825  -0.11433271   0.54746294
   -0.15955848  -0.01054677  -0.00447529   1.1590464    0.02165318
   -0.28878915   0.00462786   0.29914364  -0.00268261  -0.01074125
    0.00664823   0.00081203  -0.01411396  -0.01304401   0.00168255
    0.02332834  -0.03033324  -0.03867188   0.00257869   0.01070713
   -0.20568979   0.00730726   0.0057222    0.01024804]
 [ -0.01704454  -0.01702233  -0.00880312   0.01317981  -0.11733212
    0.00520913   0.00354964  -0.8353028    0.01557954  -0.00602458
    0.06888484   0.03921212   0.83034915  -0.00575599   0.01415399
   -0.00705585   0.02655087   0.02188125  -6.591061     0.01352601
   -0.02782814   0.00591756   0.01239488  -0.51595014  -0.02119197
    0.02493391   0.11506651  -0.03476125   0.0369893   -0.00480777
    0.01798646   0.00216074  -0.00094997   0.0145482    0.00610228
   -0.0063227    0.01445593  -0.02130013   0.01391598  -0.01714212
   -0.01137234  -0.34415162  -0.00492409  -0.0065722    0.071542
    0.01544949   0.00092565   0.02450287   0.01421521  -0.00297156
    0.8978194   -0.27101123   0.00645652   0.00631485  -0.09238202
    0.01722876   0.04000406  -0.00539877  -0.01632871  -0.0003629
   -0.02312727  -0.06048858   0.02073709   0.01773922  -0.00712921
    0.01348875  -0.00880291   0.02619243   0.0383886   -0.10959159
   -5.7636127   -0.01932761   0.13680044  -0.03541875   0.41749507
   -0.00587312   0.00355018   0.00119059   0.00462661   0.02261742
   -0.0138215   -0.01535556  -0.2547589    0.00526088]
 [ -0.00831606  -0.00133917  -0.03578712  -0.12703897  -0.00195195
   -0.00312346  -0.00028184  -0.02003977  -0.00953892  -0.00537127
   -0.28372768  -0.20783925  -0.00116435  -2.1627226    0.02805769
   -0.01549979   0.00529129  -0.00514001   0.00706673   0.00040046
   -0.02309971  -0.00545684   0.00057133  -0.00621447   0.00994573
   -0.01729053  -0.00303247  -0.004839    -0.00543282  -0.00891364
    0.00563376  -0.00793408   0.02423315   0.00025919  -0.01757464
    0.8022998   -0.00235036   0.74878436   0.00659424  -0.00761781
    0.009012    -0.00477541   0.00432762   0.0122529    0.00993306
    0.00121458  -0.00383937   0.02268391  -0.00941024  -0.00424539
    0.01950809  -0.0074581    0.7864252   -0.00939885  -0.00536731
    0.00072238  -0.00675863   0.9583674    0.01606075  -0.00188208
    0.00214459  -5.5114613   -0.00630507   0.0378239   -0.08716214
   -0.02150696  -0.00112715  -0.00045995   0.05304346  -0.01610569
   -0.00018603  -0.01170044  -1.9497977    0.01990806   0.00146841
    0.00964171   0.00240263   0.00848859   0.00197879   0.00362161
   -0.00361475  -0.5946664   -0.01395508   0.01504088]]
[-0.02619096 -0.66686314 -1.0570664   0.1815174  -0.42366317  0.24876517
 -0.24784166  0.1833128  -0.5576886  -0.07303399  0.09748718  0.14685555
 -0.02337031 -0.2018599  -0.5007834   0.02406213  0.19160503 -0.4284196
  0.11458216 -0.45532784 -0.3865257  -0.02215851 -0.27877128 -0.34190965
  0.3465396  -0.5006233   0.10143018 -0.00932741  0.25988138 -0.08686256
 -0.5974209  -0.23206067 -0.21873944 -0.04310885  0.0938048  -0.2128894
  0.20549355 -0.20423828 -0.17561941 -0.946094   -0.327776   -0.24725571
 -0.1908363  -0.64833516 -0.62673527 -0.26019648 -0.22951598 -0.45017314
  0.3637124   0.02019432 -0.13580532 -0.00687946 -0.03058117 -0.0152613
 -0.7062271  -0.01288746 -0.522174   -0.8415202  -0.5448556  -0.13269359
 -0.37200275  0.15680243 -0.07368494 -0.22904156  0.19356412  0.10439868
 -0.5578584   0.14261548 -0.3871425  -0.06495724  0.05094614 -0.04481178
  0.04456016 -0.09724103  0.08201169 -0.13773331  0.00357737 -0.7321731
  0.00768204  0.30584514 -0.01700621  0.1716464  -0.43132785 -0.19606653]
[[-0.00150094 -0.01602    -0.00659802  0.00484791 -0.01332195 -0.01412736
   0.03904942  0.2568927  -0.0010457  -0.00912297 -0.00996128  0.00772452
   0.01202545 -0.00178633 -0.01281903 -6.5325217   0.00223629  0.00961896
  -0.03795075 -0.06791099  0.00497111 -0.02067185 -0.00565405  0.02378387
   0.27460745 -0.01250897  0.00961082  0.25582147  0.00229069 -0.02423689
   0.00802694 -0.01560898  0.2734989  -0.00230741 -0.04750853  0.01930135
  -0.01148941 -0.0519238   0.00519821 -0.00707656 -0.319569    0.00550824
  -0.00017665  0.0029985  -0.03789873  0.01697815 -0.0179083   0.02430798
   0.03549423  0.00669052  0.23425022  0.03315922 -0.01122274  0.00874423
   0.01928478 -0.00822413  0.02362161  0.00713165 -0.04188154 -0.01025616
  -0.1056849   0.02389617 -0.0192022   0.00305171  0.00747093 -0.00712233
  -0.35837856 -8.191288   -0.11168247  0.16630712  0.2823819  -0.01243021
  -0.0529695   0.09145876 -0.00297324 -0.00935046 -0.00299841 -0.00617568
   0.23501346  0.00003482  0.06970922  0.01526083 -0.01959898  0.00465414]
 [ 0.07681575 -0.0065123  -0.01879283  0.04933402 -0.01980588 -0.02134394
   0.03996831 -0.01294027 -0.00185298 -0.02207393 -1.8377697  -1.2993385
  -1.8940123   0.00129915 -0.03980246 -0.08723186  0.20452592 -0.03137929
  -2.2419586  -0.35508007 -0.2104068   0.17736153  0.21005717  0.09619116
   0.03187501 -2.595905    0.0086921   0.02566371  0.19524372 -1.8746573
  -0.19481154  0.00043144  0.03911624 -0.09874817 -1.822638    0.03099114
  -0.04040924 -0.17977302 -0.05937645  1.625274    0.00532005  0.3060036
  -0.7944334   0.00374345 -0.5109794   0.42432967 -0.01733476 -0.05126424
  -0.11018951 -0.03459703 -0.39937785 -0.02794578  0.00071988  0.00368227
   0.01381419 -0.00865593 -0.21660234  0.16740285 -0.5305171  -0.07745142
  -1.1071411   0.6465319   0.06791537 -1.9825922  -0.00897651  0.00036508
   0.00982714 -0.0593771   0.02985417  0.11237037  0.00941683 -0.00120174
  -0.26590687 -0.05387351  0.01037262  0.12884237 -1.9533371  -0.02408468
  -0.04075656 -0.04044425  0.03897471  0.01065782  0.61909026 -0.03494972]
 [-0.05775093 -0.02491818  0.01477882  0.00615788 -0.03683263  0.01611301
  -0.19952752  0.04792891  0.01988508  3.8417356  -0.03860671 -0.17200497
  -0.7252113   3.9417427   0.19197947 -0.2091078  -1.1394433   0.04270806
   0.14056511 -0.05694694 -0.02032298  0.34516555  0.16570038  0.15042228
   0.03949846  0.18715814 -0.01382244  0.04953988 -0.9554018  -0.17505711
  -0.07161903  0.04993063  0.00618819  0.41163242 -0.13347985  0.02385065
  -0.043605   -0.07218355  0.08563991  0.387199   -0.06719043  0.11414222
  -0.09012042 -0.02493684 -0.14523336  0.12923165 -0.00255721  0.07369063
   0.15395463 -0.09198531 -0.07330721 -0.04368581  3.6891866  -0.07390255
  -0.01556978  4.2096605  -0.43700948  0.09712214 -1.2101208   0.13628699
  -0.18903528 -0.0228253  -0.04824618  0.16543089  0.02795401 -0.02609537
  -0.00539653 -0.29252708  0.05322196 -0.09872196  0.01812385 -0.01013073
  -0.10633329  0.08601938  0.03232609 -0.12974954 -0.01552054  4.187182
   0.01687883 -0.1155184   0.04139604  0.01903567  0.09035027 -0.45831636]
 [ 0.45902154  0.01845762  0.00120062  0.00188247 -0.0138543  -0.00180293
  -0.09092314  0.01953713 -0.00316558  0.00020206  0.02297924 -0.25676578
   0.12770624 -0.00341766 -0.6382709  -0.16482162  0.13130149  0.00397692
  -0.3160082   0.00298251 -0.4154374   0.02386047 -0.10534556 -0.1576304
  -0.01663299  0.03639566 -0.0119958   0.01158567 -0.01550118  0.03772729
   0.01439118 -0.00678896  0.0170098  -0.28077054 -0.3109025  -0.0011029
   0.04212846  0.02572499 -0.01374569  0.1180868   0.0413428  -0.0873706
   0.00404533 -0.00152684  0.04241272 -0.13486232  0.02362275  0.39570564
   0.06935906  0.5971612   0.01968556  0.02691282  0.00276581  0.00172685
   0.69336474  0.06182874 -0.00590738  0.00205271  0.12859555  0.0486773
  -0.06558724 -0.06445545 -0.02072196  0.07837074 -0.00113294 -0.00104311
  -0.03290579  0.03370471 -0.18694425  0.02334836 -0.00042978  0.00656352
   0.02260379 -0.23395771  0.0067642   0.02471929  0.01831311  0.03727021
   0.01011292  0.501223   -0.03977765  0.000963    0.01043893  0.03975596]
 [-0.00372998  1.0648437   0.9324753   0.7372011  -0.3901527   0.8277306
   0.05245896 -0.07833925 -3.2353454   0.01080477  0.05695111  0.02893985
  -0.02834316  0.0022517   0.01324007  0.06965615 -0.1759708  -0.05242297
  -0.01883869 -0.06899129  0.04432843  0.0239479   0.0528004   0.05298814
  -0.28922236  0.03894411 -2.2103202  -0.18126139 -0.05085054 -0.01865029
  -0.0196552  -0.0263132  -0.12307657  0.01345628  0.01408695  0.72852963
   0.3915191  -0.03679233 -0.04209051 -0.08433867  0.10179029  0.02110572
  -0.00240899  0.01611458 -0.02944565  0.00384034 -1.9382653  -0.04682731
   0.00844933  0.007732   -0.0858684   0.26078713 -0.02129629 -0.1749752
  -0.02148326 -0.02131077 -0.00489217  0.05755745  0.07646257  0.01314633
  -0.11907537  0.00917938  0.02262374 -0.05399447  0.00012856 -0.28217682
   0.0883079   0.07784671 -0.02895957 -0.01028532 -0.09486356 -0.00496209
  -0.03126955 -0.04347677 -0.0097011  -0.19320309  0.024093    0.00216807
   0.21134506 -0.00518065 -0.28406     0.00355286 -0.02161608  0.00535699]
 [-0.06104506 -0.03668138 -0.01475597  0.03766421 -0.02055606 -0.02267353
  -0.09580092  0.08196219 -0.00905987 -0.00720316 -0.11047195  0.08522393
   0.06763079  0.0040753  -0.00532954 -0.13976964 -0.03980242 -0.01295176
   0.17898887  0.08238073  0.0417254  -0.04021385 -0.24365678  0.02719818
   0.077994   -0.02611756  0.00935014 -0.00715335 -0.11679514  0.01303929
   0.09032755  0.01978615  0.07740722  0.00707932  0.17822345  0.05068819
  -0.00838801  0.16496569 -0.04168472  0.48759672 -0.21032521  0.00705915
  -0.9415665  -0.01109227  0.24003556 -0.3046606  -0.03096605  0.00371837
  -0.01019655 -0.01834464  0.50977004  0.04540751 -0.00224104 -0.03034621
  -0.00673266  0.0043307  -0.15156326 -0.12743424  0.01337824 -0.05085372
   0.11384849 -0.11272448  0.02517813  0.14056623  0.0391769   0.0059456
  -0.08516081 -0.3096156   0.03813671  0.36433947  0.06614     0.03716012
   0.07520557  0.08258604 -0.04170075 -0.05501248  0.02348551 -0.00032182
  -0.17102143 -0.0017156   0.11716104 -0.01561297 -0.88035715 -0.00033757]
 [ 0.00289865 -0.00572884 -0.01613359  0.00135921 -0.00860876  0.00324276
  -0.01063339 -0.02010458  0.01470177 -0.00274104 -0.11529973  0.01022806
   0.03694345 -0.01374751  0.00518161  0.00159861  0.02192354 -0.00770966
   0.07682493  0.34141022  0.03499557  0.06774747 -0.13182545  0.04722806
   0.0179812   0.01209157 -0.01012791  0.03599458 -0.08615     0.00545191
   0.02410045  0.00819606  0.04505683 -0.021745    0.09230824  0.00592043
  -0.00373078  0.35882187 -0.00925677  0.30316058 -0.06754948  0.00360801
  -0.1755089   0.00676758  0.0723789  -0.12697612  0.0209632  -0.06930266
  -0.01332652 -0.00940101  0.13008827  0.0054891  -0.01317373  0.00022574
  -0.00160913 -0.00900025 -0.00277067 -0.0955973  -0.06203911  0.02378286
  -0.03602598  0.0187184   0.00017313  0.00666166  0.03787894  0.00441042
   0.02814941 -0.02475868  0.09306404  0.11314133 -0.00369393  0.00481065
   0.38681865 -0.01240549 -0.02379814 -0.1993132   0.01682741 -0.00114792
  -0.03316607  0.00294996 -0.00652283  0.01779138 -7.3793063   0.01843462]
 [ 0.00914172  0.0022207  -0.04205208  0.00175958 -0.13843285 -0.03101812
   0.02456919 -0.0298852  -0.03505991  0.00394376 -0.05634491  0.1310722
   0.0244351   0.00276821 -0.03059311 -0.06149251 -0.9355434  -0.09223432
  -0.032911   -0.00241887  0.01608904 -0.01931874 -0.10771455 -0.24801753
  -0.03775223 -0.08629891 -0.01876477 -0.0195117   0.12332501  0.1527124
   0.07013964  0.00337222  0.01619868 -0.059561    0.16870064  0.00095268
   0.00236869 -0.00445068 -0.02503968 -2.0835857  -0.0078057  -0.14990243
   0.08804567 -0.01656151 -0.01633026 -0.04283732 -0.05752336 -0.07129762
  -0.10633387  0.02541544  0.01890453 -0.20100725 -0.00437761 -0.06603072
  -0.01448715  0.0070395   0.26741412 -0.02539184 -2.5331337  -0.57705075
   0.14316778 -0.5423937   0.02512654 -0.00659527  0.0623368  -0.05651548
   0.04022688  0.16120568 -0.08143459  0.01674207  0.03268836  0.00047335
   0.01597077 -0.05916525 -0.05977751 -0.07317132  0.05678872  0.00518965
   0.01095046  0.02955385  0.04230977 -0.01555623 -0.06425539  0.0431331 ]
 [-0.08992702  0.01469537  0.00340812 -0.07146272  0.05133477 -0.0004194
  -0.058222    0.03646585 -0.01994704  0.01631154 -0.64301205  0.26672545
  -0.20295753  0.00881271  0.02955597 -0.07434765 -0.38886073 -0.02081772
   0.23510654  1.5866536  -0.04691712 -0.2492727  -0.05455691 -0.0961583
   0.01266462  0.23562503  0.05459314  0.10587597  0.0775524  -0.016915
   0.348737   -0.04704306 -0.09669147 -0.22842753  0.04647251 -0.07450154
  -0.05876502  1.5304459   0.00427356 -0.36267462 -0.10204611  0.19544041
  -0.543823   -0.04169862 -0.17868176 -0.1142102  -0.03590704  0.2152664
  -0.3556255   0.09441898  0.96080124  0.06880829  0.00882632  0.04534368
  -0.01189445 -0.01533479  0.07716879 -0.33910382  0.1307782   0.02847662
   1.0834618  -0.28920856  0.12950605  0.38786197  0.0548179   0.0710156
   0.00770431  0.21316718 -0.00222139  1.8182465  -0.12080905 -0.004524
   1.409628   -0.14193934 -0.01650322 -0.04117823  0.21550898  0.00115572
   0.16126521 -0.07537485 -0.07549554 -0.04836138 -3.0698295  -0.06388478]
 [ 0.03409661 -0.01451306  0.00690624  0.00070759  0.00085847  0.00700893
   0.07561099  0.02361001  0.00621503 -0.00336882 -0.27347636 -0.2057236
   0.01304962  0.00809464  0.0002495  -0.06895258 -0.00465249 -0.00319005
   0.14288421  0.24491893  0.00634611  0.46885997  0.0944039   0.09459724
  -0.03668667  0.12591131 -0.00405212 -0.02000335  0.04408921 -0.24305832
   0.00131052 -0.00529408  0.02222529 -0.01878069 -0.05179396 -0.00972307
  -0.01825768  0.21458842  0.04215251 -0.06961941 -0.03715125  0.04482664
  -4.435961   -0.03203844  0.00506307  0.26435423 -0.00093444 -0.10007097
   0.01561186 -0.02260497  0.01941241 -0.00845626 -0.00860898 -0.00335201
   0.02423483  0.01224205  0.0712363  -0.01739644  0.00237958 -0.43842706
   0.48980406  0.37157527 -0.01604629  0.03233261  0.00588319  0.00685823
  -0.00099294  0.06408355 -0.20202537  0.01847371  0.02058216 -0.00096985
   0.24494268 -0.08773334 -0.02543943 -0.2090024  -0.02873118 -0.0109704
   0.02888034  0.02077499 -0.01167181 -0.00868949 -1.1979028   0.00701861]
 [-0.94280684 -0.03717449 -0.05233949 -0.01832255  0.01697635 -0.02051635
  -0.53370464 -0.0035269  -0.01785196 -0.20186952 -0.18056901 -1.901085
  -0.31791148 -0.16107973  3.1849241   0.07448703 -0.01061387  0.04860725
   0.08540194 -0.01964546 -0.18350641  0.04222045  0.2140774  -0.447136
  -0.01128443  0.24634016  0.01995574 -0.00416386 -0.20175941 -0.1836001
  -0.11186657 -0.06740788  0.03004037  2.4481373   0.3928039  -0.02325884
  -0.30531684 -0.05350284 -0.0897643   0.18184793 -0.06411888  0.05635837
   0.01949478 -0.13926774 -0.059361    0.2997117  -0.03046763 -0.05389605
   0.25051048  2.174908   -0.01289607  0.04061757 -0.16098966  0.07937922
   1.5488222  -0.88836944  0.1008405   0.03850898  0.1393831   0.02589138
   0.0036821   0.1671202   0.04731771  0.32126722 -0.02805645  0.03752625
   0.02703983  0.00841339  0.05882766 -0.04917999 -0.0357075  -0.10707798
  -0.06491947 -0.01210336 -0.06728304  0.03614736  0.31529126 -1.2841132
   0.07729611  0.9771161   0.01008811 -0.11008158  0.09049812 -0.02990507]
 [ 0.01830406  0.0172629   0.01276558 -0.00243921  0.02004447 -0.00007094
   0.17603105  0.03705243 -0.00655293 -0.15283641  0.08274536 -0.06633393
  -0.01008718 -0.13292992 -0.03111216 -0.15920454  0.06912991  0.01608837
  -0.02035705  0.03880921  0.00364217 -0.0284382   0.05085983 -0.16683352
   0.03196341  0.03969472  0.002599    0.02891407  0.07480537  0.00334752
   0.00320713 -0.01161772 -0.00398877 -0.03725035  0.01565366 -0.01555692
  -0.06418233  0.03138497  0.00531167 -0.16157185 -0.00456577 -0.05045789
   0.04901134 -0.00281287 -0.00681327 -0.04474502 -0.00967232  0.02529803
  -0.8479073   0.07828552 -0.03307938 -0.01280998 -0.14963715  0.01537815
   0.08207285 -0.8540927   0.08922203 -0.03112131  0.04362515 -0.0520867
   0.02057274 -0.02676286  0.00798419  0.05576958  0.01647297  0.0176258
  -0.00346071 -0.04352164  0.03271228 -0.03036458  0.01515454 -0.00824366
  -0.00256311 -0.1518751   0.00528487  0.06794805  0.05745381 -0.6194866
  -0.00082375  0.10263689 -0.01310629 -0.01345642  0.00668316 -0.26490593]
 [-0.0039717   0.0101279   0.01205224 -0.00265165  0.12026323  0.02454724
  -0.01983438  0.01074252 -0.01053587 -0.00277886 -0.01581839  0.00011973
   0.01016564  0.00230048  0.0016478  -0.00203259  0.23775035  0.18680583
   0.01199445 -0.00117229 -0.00661831  0.00437962 -0.00182772 -0.00833352
   0.02051225 -0.00301515  0.13016632  0.01501343 -0.03611248  0.01964935
  -0.01304873  0.00449442  0.00628892 -0.00319312  0.02588265 -0.01008722
   1.1438547   0.005628   -5.6451235   0.00626094  0.00380805  0.01650202
  -0.01172533  0.00026152 -0.02451605  0.00151893  0.04209823 -0.00670162
  -0.01177066  0.00190595 -0.00957499 -0.7517001  -0.00044651  0.15772152
  -0.00132048 -0.00560974 -0.00329713 -0.01048156  0.00337355 -0.00623411
  -0.00232247  0.00252995 -2.3768365  -0.00000263  0.0066773   0.14490375
  -0.00727323 -0.00204592  0.02902484 -0.0280858   0.01334798  0.00629067
   0.00978713  0.00070278 -0.00286752  0.04326651 -0.02399328 -0.00708959
  -0.00818609  0.006673   -0.03582379 -0.00240088  0.01705479  0.00637297]
 [-0.10953607 -0.03347525  0.02343096  0.00990978 -0.03959805 -0.00928592
  -0.79933923 -0.02081548  0.00124897  0.39830106 -0.06136012 -0.05154743
  -0.2699395   0.44554815  0.06170882  0.17686819 -0.4523332  -0.02809072
   0.02212968  0.00200362 -0.05709042  0.16141021  0.01354265  0.2765342
  -0.05425207  0.06762085  0.00402361 -0.01795611 -0.11161739 -0.10745324
  -0.03377156  0.02953635 -0.03058405  0.2779797  -0.04922767  0.01630197
   0.08766907  0.00359089  0.02228407  0.05103919 -0.0296413  -0.00150483
   0.00234612  0.02168549 -0.06737587  0.03540214 -0.02729368 -0.10611821
   0.18293406 -0.13164496 -0.01022886 -0.02383814  0.4964185  -0.01355542
  -0.17705461  0.7093609  -0.15727685  0.00364864 -0.5167215  -0.00588013
  -0.07099446 -0.06046744 -0.04117655  0.07382081 -0.00772663  0.00456282
  -0.02986841 -0.10038861 -0.084581   -0.05052445 -0.03531907 -0.02488903
  -0.0172975   0.24257502  0.01335977  0.09211385 -0.11502691 -0.24970408
   0.01452031 -0.02864453  0.01697021  0.0280324  -0.01762685 -0.18023649]
 [ 0.24683417 -0.01135279 -0.00831033 -0.00477632 -0.03479297  0.00179097
   0.15111004  0.02343231  0.01479456 -0.01863422 -0.12806231  0.3240659
   0.14137019  0.01945435 -0.03073211 -0.01960859 -0.32441252 -0.040803
  -2.890577   -3.0540955   0.232487   -2.3234315  -0.488504   -0.09434897
  -0.004412   -0.11448995  0.01545274  0.02044874 -0.44539988  0.07587355
  -0.09034187  0.05337159 -0.01726124  0.01273381  0.42084527  0.01731941
   0.10630167 -2.372722    0.01287991 -1.0034906   0.00781689  0.12794037
   0.5074653   0.07146551 -1.183982   -0.5825216   0.03402525  0.41802752
   0.18962866 -0.1194253  -3.1139073  -0.00444607 -0.00351495  0.02133365
   0.06248455  0.01176552 -0.42443883 -0.08830176 -0.4916521  -0.42055902
  -2.2257793  -0.63137126  0.00532377  0.27551448  0.04561726  0.01344232
   0.05294481 -0.06008564 -0.01912335 -3.311093   -0.01355366  0.08169141
  -1.3070295   0.08418336  0.06320654 -0.14891113  0.28946176 -0.00739037
  -0.02352251 -0.00404609 -0.00214609  0.05431028  0.487815    0.0103212 ]
 [ 0.0114433   0.02260753  0.02220755 -0.02004511  0.01530291  0.02096084
   0.04335244  0.04196857 -0.00508509  0.00085362 -0.00474095 -0.01393051
   0.01788717  0.00150572  0.01109479 -0.89784724  0.01721716  0.01947953
  -0.01589751  0.00946993 -0.01381089  0.01154384  0.05396948  0.01183837
  -0.70899945  0.01419874  0.00662661  0.02883888  0.02950473  0.00514965
  -0.03084428  0.00559787  0.06860729  0.00583277 -0.00410715 -0.02361369
  -0.01115187  0.00817669  0.00344482 -0.02241711 -1.2336282   0.01122722
  -0.00875294  0.00032158  0.01807036  0.01371068  0.00178982 -0.00590921
   0.01626964  0.00636608 -4.0838428  -0.00489716  0.00069552 -0.00182222
  -0.0075475   0.00987155 -0.05536021  0.04927242  0.00232542  0.0336688
   0.04768277  0.01114048  0.00506713  0.00007231 -0.00471116  0.01467972
   0.96769184 -2.187353   -0.26914126 -1.6303521   0.05129126  0.01347843
   0.01295972  0.04348295 -0.00224869 -0.00552788 -0.00386319 -0.00290357
   0.5639033  -0.00166628 -0.06953834  0.00574152  0.05992604  0.01144265]
 [-0.04456498 -0.00382992  0.00249405 -0.00567165  0.03886997 -0.01042472
  -0.02748569 -0.01218679  0.02109416  0.00258427 -0.24519864  0.08136113
   0.05434531  0.01476766 -0.03616258 -0.03100176 -0.13487007  0.05217547
  -0.00199366 -0.0441559   0.03589814 -0.19364864 -0.20514473 -0.99665684
  -0.00331998 -0.02896667  0.01498169  0.0130485  -0.9121485   0.09293885
   0.07805971  0.01900661  0.0082141  -0.04918156  0.36087948 -0.00689333
  -0.05850783 -0.03548013 -0.00551782 -2.9433997   0.02432743 -0.13829508
   0.0227176   0.0015112   0.01067236 -0.0980499  -0.01438317  0.14096949
  -0.10964169  0.00927625 -0.0160232   0.02236494  0.00176306  0.01786774
  -0.00025242  0.01941404 -0.4311187  -0.04425129 -1.6953453  -1.5701587
   0.08242208 -0.84217536  0.03038225 -0.015513   -0.00424809 -0.0054467
  -0.00417947  0.04829414 -0.14759172 -0.02137208  0.02006033  0.04372501
  -0.04812294  0.00360617  0.03348018 -0.1673646   0.14145115 -0.01019814
   0.00130766 -0.02291542 -0.01837962  0.00301691  0.08803657  0.0232793 ]
 [ 0.00831521 -0.00015854 -0.00825689 -0.00442801 -0.00616954  0.01005945
   0.07505259  0.00029655  0.00304659 -0.00049594 -1.7596223  -4.425778
  -0.28965738  0.00446354  0.01999775 -0.00889958  0.05549717 -0.01590337
   0.06186414  0.11058094  0.01757927  0.57335013  0.2765313  -0.01205711
   0.033      -0.2816949   0.0087136   0.02905505  0.01117998 -2.636572
  -0.0918029  -0.03897851 -0.00936589  0.02169567 -0.06685231  0.00142671
   0.00325308  0.0309985   0.06042129  0.44010293 -0.01756962  0.05044156
  -2.5170674  -0.00696061 -0.06198758  0.27472916 -0.02133051 -0.13109353
  -0.01247506  0.03216092  0.21135888  0.03500953  0.0063614  -0.00547493
   0.0687992  -0.00504729  0.16257817  0.19529861  0.08246694 -0.3961684
  -0.5044259   0.5235989  -0.03556146 -0.21972615 -0.02255539 -0.00881056
   0.03630122  0.00073368 -0.27550092  0.02167641 -0.00365404 -0.01059934
   0.11103978  0.0052755  -0.00165845 -0.07891325 -0.18517497  0.00220233
   0.01354901  0.08779354 -0.00460402 -0.01561793 -0.5294236  -0.03384786]
 [-0.0717251  -0.16494077 -0.22543024 -0.07071742 -0.9052834  -0.22554782
  -0.21994157 -0.01026757 -0.63129616  0.00656242 -0.05802784  0.08832437
  -0.15207805 -0.01176105  0.04134835 -0.13957393 -2.5517306  -0.42095393
  -0.2383185   0.00111452  0.05876321 -0.17929244  0.06171925 -0.05444643
   0.06211483 -0.04238737 -0.4209828   0.02390151  0.48438323  0.07593879
  -0.00598132 -0.0202057   0.05727221 -0.03382529  0.18680307 -0.05866524
  -1.3212646   0.03081755  0.15414649  0.1451487  -0.00216263 -0.14026071
  -0.12179142 -0.06212802  0.06096632  0.07988355 -0.5785434   0.00162625
   0.04750643  0.01607312  0.00585848  0.1318004   0.00924729 -0.6391826
  -0.04357048  0.0060752   0.22704071  0.00140022  0.17097399 -0.03579297
   0.06402545 -0.01246054  0.38647267 -0.05525246 -0.00222789 -0.96330786
  -0.01833539  0.0550736  -0.30996454  0.03009624  0.01598685 -0.01756656
   0.00288621  0.15857515 -0.00490906 -0.06799725  0.12556155  0.00199352
   0.01824341 -0.03229582  0.144624    0.00327274 -0.02833233 -0.01670057]
 [ 0.02507513 -0.02384972 -0.0053104  -0.01107513 -0.02133056 -0.01434559
   0.03956879  0.00670055 -0.02302649 -0.01212107 -1.6718076  -0.1144732
   0.01119145 -0.00180776 -0.0229394  -0.03413033 -0.07164004  0.01340118
   0.08071512  0.48764515  0.02653937 -0.06540271  0.00060616  0.07443742
  -0.00206913  0.0685198   0.00289825  0.01235436 -0.10085262 -0.09841049
   0.05956845  0.00309236 -0.03162505 -0.02991546  0.05179952  0.00349519
   0.01351945  0.52684414  0.00718546  0.18155941 -0.08106074  0.00461237
  -0.25586048 -0.01430037  0.03831609  0.14816503  0.02084261 -0.08885826
   0.1112408  -0.01658569  0.21127869  0.00945135  0.00892    -0.00666609
  -0.00955046  0.0059717   0.03196966 -0.08059931 -0.06915338  0.00357788
   0.494349    0.1607628   0.03147422  0.04269352  0.03436298 -0.01883965
   0.02669616 -0.11497238 -0.08452513  0.42688227 -0.04769635 -0.01772726
   0.5722607   0.04715654 -0.020152   -0.13951454  0.02235064  0.01067939
  -0.03343889  0.03062433  0.04236985 -0.02381134 -5.6103387   0.00546375]
 [ 0.01348304 -0.00343917  0.01915612 -0.01405159 -0.01630732 -0.00086465
  -0.02185403  0.5470872   0.00449294  0.00618966  0.0038328   0.00405971
  -0.01240678 -0.00747089  0.0027101  -5.776433    0.0727683  -0.01724088
  -0.05268131 -0.03239414  0.00429729 -0.04538433  0.04034112 -0.08281989
   1.2059684   0.04309748 -0.0043821   0.54416865  0.06856322 -0.00000079
   0.01174526  0.01806325  0.52672565 -0.00794493 -0.00791385 -0.0157571
   0.00890531 -0.06939948  0.00246654 -0.05273856 -0.1788303   0.00973389
  -0.02097549 -0.00270949 -0.09245382  0.06774154  0.00098745 -0.0503967
   0.02591377 -0.00832944  0.07587688 -0.032051    0.00589199  0.0166794
   0.00253532 -0.00698495  0.0567564   0.0007775  -0.01097042 -0.02606857
  -0.09306232  0.02169795 -0.02386267 -0.04083018  0.02496961 -0.01432444
  -0.38248745 -5.396138   -0.16946483  0.11737884  0.5367298   0.00994376
  -0.03076779 -0.00356034 -0.00706785 -0.13344307  0.00301577 -0.00164747
   0.44349483  0.01090887 -0.06383195  0.03499862  0.05491948  0.0035814 ]
 [ 0.05274074 -0.00728092  0.00771768 -0.00379745 -0.00407297  0.00376767
   0.02472196 -0.00278862  0.00331903 -0.00191895  0.00526583 -0.1131367
   0.00575256  0.00151212 -0.00006965 -0.02446971 -0.0116034   0.0067917
   0.02602226  0.1937763   0.00096133  0.2187541   0.02667105  0.02341686
  -0.01786415  0.0440007  -0.00132901 -0.02675902  0.0340871  -0.0467408
   0.01595018 -0.00658967 -0.0069018   0.01128874 -0.00171026 -0.00312327
   0.00288284  0.1595682   0.01861716 -0.7682382  -0.03972288  0.12430472
  -3.5715914   0.00380138 -0.03725671  0.1005117   0.00524199 -0.14379944
   0.04445075 -0.00829776  0.09496048  0.00426724  0.00617933 -0.00129382
   0.01418038  0.00103376  0.0866835  -0.04105576 -0.02138823  1.2888081
   0.22434416 -0.03185792 -0.0215035  -0.00375509  0.00338865  0.01463229
   0.00956235  0.09245525 -0.11965954 -0.01796695 -0.00303463  0.01335852
   0.17264666 -0.05388071  0.00847732 -0.05172351  0.01718623 -0.01289622
   0.0393036  -0.00453533 -0.01941285 -0.02124696 -0.89556575  0.00288666]
 [ 0.00337035  0.01392983 -0.01130039 -0.00095522  0.00080086 -0.01566472
   0.00669457  0.00186121 -0.003247   -0.01093218 -0.2635024   0.01182647
   0.04091953  0.00351364 -0.01807507  0.00944012  0.01808716  0.0087081
   0.0775205   0.33953205  0.04125286  0.065434   -0.1616319   0.07952175
  -0.00000653  0.0049125  -0.00800849 -0.00440246 -0.09889236 -0.01978187
   0.02951533 -0.00337267  0.02982577 -0.00249573  0.11352958 -0.00506098
  -0.0078349   0.38890553 -0.0133037   0.3273693  -0.10459356  0.09342555
  -0.20249009 -0.0022279   0.0508783  -0.07307567  0.01671808 -0.10490791
   0.03046149 -0.04684394  0.16780104  0.00757697 -0.00040158 -0.00843941
  -0.02351545  0.00303281 -0.07684828 -0.11676189 -0.00955339  0.04594895
   0.3423394   0.04161398 -0.00075608  0.0500218   0.02879586  0.00100835
   0.00692281 -0.03277181 -0.09271351  0.11686009  0.01555589  0.02337865
   0.33994415  0.00448292  0.01623757  0.06071886  0.00720627  0.00202551
  -0.005078    0.00512866  0.01917573 -0.0072637  -9.707709    0.00772459]
 [-0.02034781 -0.08189095  0.01902093 -0.01303659  0.21244551  0.00387603
   0.03073009  0.02549275  0.23300965  0.00838071 -0.01697118 -0.00220196
   0.03158777 -0.00369048 -0.02524906  0.00669167 -1.9807932   0.367245
   0.03258345  0.0195288   0.00202351 -0.00181095  0.01195796 -0.10239147
  -0.00105884  0.00532656  0.3255324  -0.00578098  0.1835034   0.00646865
   0.04158267 -0.00598577  0.00430161  0.00576099  0.01635064 -0.00953743
  -0.76543593  0.01218949 -9.510918    0.03702746  0.00922173 -0.01345386
  -0.02240467  0.01088932 -0.00757188 -0.03300293 -0.04344896 -0.01048138
  -0.00195607  0.00200362  0.01300451 -0.57535774  0.0050746   0.3833193
   0.02915437 -0.00282654 -0.10314539  0.01829247 -1.2863337   0.07381399
  -0.0081045   0.01822551 -9.147169   -0.00354786  0.01749563  0.3208557
   0.00604164  0.0078012   0.02727027  0.02414612 -0.01069392 -0.00979395
  -0.00490116 -0.01283479 -0.00103168  0.01886174  0.01460211 -0.00693826
  -0.0124001  -0.00302544  0.04975187 -0.01229644 -0.03954767 -0.01717746]
 [ 0.04826764  0.01422612  0.00582113 -0.0021162   0.01802771 -0.00619232
   0.01117719 -1.7599038   0.0113149   0.01108575 -0.00922869 -0.00657528
   0.0075212   0.01812265  0.01746821  0.02751161  0.00031481 -0.01024649
  -0.01472023 -0.04024016  0.0001246  -0.04958148  0.02474924 -0.00352301
  -1.866422    0.0206762  -0.01371561 -1.9620202   0.03213571 -0.02893288
  -0.00355836  0.02628255 -1.392555    0.0234375  -0.01259953 -0.02527456
   0.00775244 -0.05558493  0.02749437 -0.02736047 -1.554038   -0.00528968
   0.06496751  0.00078868 -0.0075423   0.03325869 -0.02300035 -0.04438921
   0.03375537  0.0057718  -0.06641556 -0.00556427 -0.00919184  0.01210123
   0.00259966  0.0244026  -0.01185033 -0.00059816  0.01649681  0.01903538
   0.00020848 -0.01604629 -0.001605   -0.02622571  0.01443356 -0.00624456
  -0.07989461 -0.0087932  -0.1620092  -0.06045906 -1.1891524   0.03734419
  -0.03040837 -2.679216   -0.03497607 -0.14428172 -0.01333622 -0.00034991
  -2.7973967   0.00498407  0.00649559  0.01778128  0.12035359  0.0415933 ]
 [-0.02149753  0.00890265  0.0268314  -0.00183176  0.01130762  0.00376228
   0.03244044  0.00642143 -0.00802037  0.02152743  0.08645953  0.07762474
   0.0197859   0.02303338 -0.01433831  0.07558521 -0.06449149  0.04505486
   0.00822385 -0.00235345 -0.02492834 -0.04682605 -0.03136038  0.08856446
   0.04423466  0.04077529 -0.04779306 -0.01212755 -0.02537585 -0.17842777
  -0.2969887   1.2316232   0.00993197  0.01042028  0.07114644 -0.00802732
   0.08187193 -0.04291732 -0.0276589  -0.10135796 -0.05175934 -0.01884095
  -0.10937175  1.3371733  -3.476686   -0.3083838   0.02445336 -0.12296037
   0.05505303 -0.02161458  0.05069367  0.0306602   0.0183995  -0.00333118
  -0.03232791 -0.00339691 -0.01305764 -0.40241408 -0.16455778  0.15369676
  -0.00745943  0.0558793   0.03304885  0.00831015  1.1728163  -0.00149929
  -0.01189805  0.10146358 -0.11110137  0.00456607 -0.02439762  1.2410057
   0.03592143  0.0318033   1.2619072   0.09930751  0.03736599 -0.00125181
   0.03737721 -0.02232936 -0.07774385  1.322609    0.06190402 -0.01129417]
 [ 0.08989165 -0.35741055 -2.2216768  -0.24799728  0.18464331 -0.75328153
   0.37760207 -0.14915206  0.04572233 -0.00794528  0.17972419 -0.0263389
   0.00057671 -0.00768248  0.00082279 -0.20610195 -0.3842381   0.07216112
   0.05320781 -0.02583697 -0.00959033 -0.0299274  -0.01891149  0.04940176
  -0.06183665  0.44154266 -0.11432181 -0.24319811 -0.14996928 -0.05649177
  -0.06725723  0.02411299 -0.1177972  -0.02419479 -0.02346088 -0.19803149
   0.20701297 -0.0434555  -0.0596596   0.12245326  0.07601649  0.04698449
   0.01702118  0.01734612 -0.03116882 -0.00794864 -0.2250496  -0.15495282
   0.04024599  0.01060179  0.15295225  0.01847022  0.01147268 -0.05572324
  -0.01192379  0.01365873  0.00987802  0.01140315 -0.09238627  0.03032346
  -0.01233301  0.01778824  0.04862078 -0.4587469   0.00064523 -0.1311949
   0.07634298 -0.01514618 -0.06513082 -0.10896984 -0.16429782  0.03981308
  -0.03486431 -0.21749268 -0.04444536 -0.13923006  0.04642595  0.01999569
   0.536437   -0.01726235  0.68001854 -0.03571183  0.06188341 -0.00739438]
 [-0.00403014  0.0109903   0.01512927 -0.06761207 -0.00224434  0.0173828
   0.03135065  0.25265348 -0.00048582 -0.01553318 -0.00763185 -0.01182153
   0.01216707 -0.01368915 -0.00745512 -1.0218657  -0.00035504 -0.00989562
  -0.00252866 -0.00548869 -0.01635598 -0.0038615   0.04077854 -0.01816245
   0.20338608  0.03213611  0.0069751   0.1991518  -0.02790616 -0.02145152
  -0.00124373  0.00976206  0.21287982  0.00979445  0.04700558 -0.0769121
  -0.00741107  0.00552921  0.01695126  0.0295371  -0.85765105  0.00497969
   0.03032499  0.00656922 -0.02628736  0.03908876 -0.00226688  0.0031549
   0.00581789 -0.01064506 -4.3650665   0.0140429  -0.01864768  0.02299777
  -0.00545923 -0.00924912 -0.05726719  0.02555519 -0.03610608  0.0453222
   0.03429173  0.03162765 -0.00605654  0.00135562  0.00283735 -0.00171531
  -0.23767476 -5.13709    -0.05814384 -2.4440506   0.22837287  0.02239752
  -0.0095475   0.06978975 -0.01129506 -0.27174735  0.00790069 -0.00999216
  -0.2246064   0.00055697 -0.10716529  0.01165096  0.04663091 -0.00616   ]
 [-0.02128914 -0.00975416 -0.02437676 -0.0038015   0.03659717 -0.03906133
  -0.03577085 -0.01308671 -0.02001398 -0.01049791 -0.40235633  0.15876305
   0.03778306 -0.00259328  0.0137816  -0.0433985   0.00687314  0.03155698
  -0.07570304 -0.01550962  0.08681194 -0.20456801 -0.23257533 -1.604164
  -0.02119233 -0.04010418  0.01506155  0.01055449 -1.1718942   0.07399425
   0.10214866  0.03216864  0.00254873  0.01742345  0.41225877 -0.01045249
  -0.03419771  0.00228186  0.01833956 -3.357335    0.02176894 -0.01158096
   0.22687404 -0.01025919  0.02374332 -0.06869029 -0.00217717  0.23373735
  -0.01256617 -0.03908807  0.02546249  0.03665974 -0.0087024   0.01853644
  -0.0816087  -0.00492182 -0.83493    -0.09209069 -1.4653956  -0.97583824
   0.04174749 -1.8155197   0.02538658  0.05743551  0.00206737  0.02792002
  -0.01741964 -0.04846516 -0.04363709  0.0410385   0.01521497 -0.01987255
  -0.01573316  0.10238849 -0.01907746 -0.04532557  0.17658977 -0.01517332
  -0.02050323 -0.04087749 -0.02480531  0.02362654  0.2826832   0.03498336]
 [-5.730429   -0.00317135 -0.00311944  0.00609649  0.03580796 -0.00842437
  -0.66724384  0.0092493  -0.0131928   0.06116369 -0.01367607 -0.01281222
  -0.03922586  0.0385819   0.07464826 -0.01676483  0.01730901 -0.02225313
   0.00460129 -0.00381484 -0.02018346 -0.06682119 -0.00697287  0.05134146
   0.0087894  -0.00584288  0.00780263  0.01702833 -0.02864857  0.01473824
   0.00384671  0.01986514 -0.02704507  0.06734743  0.02855041  0.00284299
   0.01413046 -0.00763367  0.01079457 -0.00633808  0.01152862  0.01517888
   0.00803165 -0.0399147   0.02520656 -0.0196168   0.01144519  0.0116479
   0.07437094 -2.3808594   0.00114384  0.01839506  0.02068171  0.0216671
  -5.6848946  -0.28619945  0.05168965  0.00630808 -0.03768889  0.00923337
   0.01564611  0.00221337  0.00831232 -0.00663089  0.01253917 -0.0167576
   0.00953907  0.04499266 -0.05085842  0.01442934  0.01355297 -0.00622209
   0.01062351  0.00200235  0.01101295 -0.15229389  0.02784571  0.38780484
   0.01376877 -7.735927   -0.02948924 -0.00563623  0.01271609 -0.37276816]
 [-5.0468063   0.00715511 -0.01208711  0.00166681 -0.04566715 -0.00105253
   0.30741715  0.00682643 -0.0064777  -0.03264212  0.34868118 -0.08830094
   0.06160684 -0.0256945  -5.0924463  -0.66279364 -0.35182407 -0.01359584
  -2.0129795   0.0325483  -0.18962732  0.2087607  -0.13742264 -4.3476267
  -0.00395953  0.10801813 -0.00763289  0.02361032 -1.2096189   0.00995752
  -0.01647704 -0.01782736 -0.0073545  -5.3018556  -0.54303455 -0.00031018
   0.13425018  0.07072948 -0.01376765  0.09974764 -0.00305089 -0.31900844
  -0.28497434 -0.04363535  0.04851876  0.01982113  0.01425451  1.031161
  -4.9716363  -2.1282232  -0.04067935 -0.06706533 -0.03151441 -0.0129488
  -3.9238746   0.03233653  0.38326553 -0.01555219 -0.83373475 -0.05962136
  -0.20225076 -0.04948677  0.0752018   0.15192242  0.03248303  0.00051127
   0.0171591   0.12705933 -0.10933628 -0.01521671 -0.00538303  0.00377271
   0.02222259 -0.8547674  -0.03955042 -0.12111238 -0.16059788 -0.03891177
   0.0030419  -4.269329   -0.01580822 -0.0245091   0.01529108  0.06650291]
 [-0.01174287 -0.00816221  0.00964193 -0.0040235   0.0056838   0.00483056
  -5.4187517  -0.01507332  0.0034303   0.352145   -0.0139036  -0.01336137
  -0.09107807  0.3041076   0.0066264   0.03194972  0.02604919  0.0084301
  -0.00544776 -0.00762476 -0.05692215 -0.0271074  -0.03289254  0.05363315
   0.00698187 -0.00380915  0.01013314  0.01956191  0.02901045  0.01175978
   0.0141116   0.01674823  0.01259761  0.03817942  0.03170493 -0.00375707
  -0.01771518 -0.00327029 -0.0060216  -0.02170272  0.00980691  0.00832793
   0.03044371  0.02165416  0.03723056  0.00047674  0.00285974 -0.00063444
   0.00252142  0.01246916  0.01670522 -0.01748459  0.28610948 -0.0081062
   0.00592151  0.18617901  0.00647274 -0.02469109  0.04650112 -0.00733765
   0.00853895 -0.0207818   0.00375626 -0.01377481  0.0148814   0.01502587
  -0.0064987   0.05513369  0.04470762 -0.00061133 -0.00044562  0.01340863
   0.02697394  0.01478798 -0.01328305  0.03243511  0.0319012   0.20087007
   0.02324087  0.00081153 -0.0145607  -0.00222246 -0.00281868 -2.5617948 ]
 [-0.42096648  0.00390259 -0.00207688  0.00430172 -0.02703441 -0.00216003
  -0.0582425   0.0126521  -0.00987675 -0.00689978  0.03441718 -0.03151151
  -0.00746815  0.00150515 -0.276195   -0.19321437  0.07879614  0.01876344
  -0.25850716  0.00248696  0.00122247 -0.04393574  0.03811537 -0.41967887
  -0.01374755 -0.01446081 -0.00240229  0.00744658  0.06195943  0.01447398
  -0.03230029 -0.02583044  0.01099921 -7.14517    -0.09959475  0.00949432
  -0.02126397  0.00982814  0.01391482  0.09959138  0.0027833   0.01128735
  -0.01071925  0.00211559 -0.00986668 -0.00526875  0.00381327  0.02889922
  -3.366477   -0.10571002  0.01700117  0.0228869  -0.00600711  0.00227687
  -0.3039949  -0.00793232  0.01394386  0.00367568  0.20494953  0.02416666
   0.01372739  0.0358567  -0.00029124  0.01078143 -0.00774857 -0.01142685
   0.00757167  0.07265481 -0.04344898 -0.00436341  0.0230019  -0.00942957
  -0.00694571 -0.21556863 -0.00325912  0.09171028  0.04185461 -0.00204631
   0.00799505 -7.0558624   0.01191648 -0.00223592  0.00770551  0.01103842]
 [-0.00300657  0.00640126 -0.0001194   0.00345459  0.00367391  0.00980625
   0.01589414 -0.00441514  0.0014207  -0.00459068 -6.16942    -5.13676
  -0.29108644  0.00102865  0.0127224   0.03272729  0.00644196 -0.00123063
  -3.44148     0.00422584  0.00213    -0.02285404 -0.03979475  0.00256123
  -0.00467412 -4.470031    0.01262736  0.00224628 -0.03984343 -0.2995026
   0.03789572  0.01726519 -0.00296613  0.01468003 -0.23896793 -0.00725684
   0.02889411 -0.01103201  0.00183099 -0.06491163  0.00473186  0.80388594
   0.02016603  0.00348267 -0.02361955 -0.00301545  0.00580188  0.05754379
   0.0252761  -0.00623304 -0.0041109  -0.0002633  -0.003556    0.00938278
  -0.01319089 -0.00658106 -0.23597342 -0.04681616 -0.0699655   0.05682585
   0.01512314 -0.02326412 -0.00663436 -4.714579    0.00348234  0.01018655
  -0.0008979  -0.00673339 -0.01250989 -0.01139073  0.0045238   0.00295753
  -0.00778026  0.02627351  0.00357056 -0.15108827 -0.32002634 -0.00279248
  -0.00349025 -0.01325596 -0.01233757  0.00786969  0.00136887 -0.00377699]
 [-0.01435758  0.02236621  0.0093774   0.00287274  0.01358562  0.00029103
  -0.00665328 -0.00037466  0.01799636  0.01681062  0.06710472  0.06293341
   0.11945927  0.00856028  0.01593373  0.00700959  0.02822027  0.02530113
   0.047498    0.02122425  0.02786814  0.10695836 -1.3765386   0.13630955
   0.00270991  0.0994248   0.01305505  0.01502365  0.03786618 -0.565934
  -0.00115759 -2.40057    -0.02145794 -0.02238326 -0.01294803  0.00731615
  -0.03117779 -0.04817786  0.00774544 -0.16376728 -0.00819841 -0.1100066
  -0.05642243 -0.51113045  0.1922613   0.01096817  0.01487276  0.01461369
   0.07440447 -0.05007488 -0.04836655 -0.00890608  0.01574114  0.04791057
  -0.01705391  0.00442325  0.07613911 -0.0928207  -0.04801571 -0.07142831
  -0.0548449  -0.05850056  0.05258272  0.06107323 -3.9576335  -0.00639182
   0.04897904 -0.01269403 -0.07518734 -0.06612784 -0.00401349 -0.6711824
   0.03129885 -0.02688329 -0.45105618 -0.16356376  0.09012507  0.00276514
  -0.00124769 -0.04328901 -0.00934057 -0.33178744  0.11191548  0.04228365]
 [-0.07264998 -0.00994186  0.00036197  0.01500512 -0.01776421 -0.02428495
  -3.1329265   0.03593613 -0.01567486  0.32753602 -0.01612096  0.0520536
  -0.9622957   0.29737258 -0.0232047  -0.08001372  0.00041167 -0.02593337
  -0.00236122  0.01946535 -0.09348851 -0.08482382 -0.00908923 -0.06876329
   0.00110269 -0.0298664  -0.00159616 -0.02495094  0.03999446  0.04504319
   0.0166151   0.00092401  0.01773325 -0.07027327  0.04430486 -0.01076273
  -0.03387269 -0.00805574 -0.00456148 -0.0750227   0.03825752  0.03250899
   0.08011185 -0.03343363  0.01683417 -0.00116554 -0.01022326  0.01244752
  -0.07846585  0.00539006 -0.0023888  -0.00215822  0.28793907 -0.00284948
   0.08625705 -0.39879456  0.18355954 -0.00622633 -0.02054117 -0.00140718
   0.02727226  0.07106265  0.09277316  0.00008729 -0.02004485 -0.00192146
  -0.01365533  0.06452705  0.03115737  0.01291486 -0.00731372  0.02577242
   0.01610296 -0.12648839 -0.00410505  0.05412759  0.0614496   0.63904214
   0.00894248 -0.9136784  -0.0126162  -0.02283562  0.01029227 -2.1059933 ]
 [ 0.01690787 -0.00835713  0.00830341  0.00905769  0.00212673 -0.01048643
   0.03673727 -0.00564688 -0.01679168 -0.00117996  0.02713551  0.01397711
   0.00968004  0.0018646   0.01721204 -0.06987926  0.03022602  0.00839391
  -0.03826652 -0.01578022 -0.01396773  0.01012226 -0.5462165   0.02984491
  -0.01821625  0.03595268  0.01100322  0.01617761  0.0023794  -0.17024316
   0.734431   -0.32342118 -0.02049924 -0.00153185 -0.00710519 -0.00068191
  -0.03017841 -0.0522868   0.00212953  0.03320909  0.00861591 -0.03097984
   0.00590922 -0.17863701  0.01546559  0.05950962 -0.0073417  -0.01356886
  -0.00115864  0.00233747  0.00937982  0.024174   -0.01662352 -0.00247113
   0.01246055  0.02009689  0.10828654  0.58430785  0.07628009  0.03568086
  -0.03221659 -0.0133773  -0.02337967  0.03343664 -2.0441532   0.00210082
   0.02180797 -0.00894058 -0.09558298 -0.01841076  0.03723237 -0.22124304
   0.00282053  0.01012903 -0.18294914 -0.01446424  0.01421032  0.00550518
  -0.00554533 -0.0150455  -0.01401319 -0.15758555  0.02221424  0.00639276]
 [-0.39166903  0.00205915 -0.00306675 -0.00442507  0.00180082 -0.00189849
  -3.7229166   0.02501471 -0.01491919  0.19116585 -0.0095732  -0.09301147
  -0.7489312   0.18334818  0.08420103  0.05495188 -0.4267978   0.00425855
   0.0069199   0.00083182 -0.04185687 -0.03437629 -0.00898237  0.12281286
  -0.01932009 -0.01249272 -0.00348473 -0.02035289 -0.14945282  0.00632223
   0.0015044   0.00608535  0.01490003  0.11847902  0.0698479  -0.01998518
  -0.01713277 -0.01078426  0.0438868  -0.03001949  0.0017271  -0.0170563
   0.02713348 -0.01121992 -0.02498717 -0.03429949 -0.00028652 -0.08877146
   0.02081962  0.06388211 -0.02643806  0.00261451  0.21611577 -0.02359601
  -0.01773126  0.8388034   0.01677521 -0.00365534 -0.33468893 -0.00879
   0.00931414 -0.04285217  0.00320782  0.00161815  0.00355744 -0.00651046
   0.02589694  0.01934843 -0.06228505  0.00150045 -0.02576913  0.01218457
   0.01449588  0.06881227  0.0139188  -0.16547784 -0.00324235 -0.23829672
  -0.00737289 -0.03707302 -0.02368385  0.00405728 -0.00897492 -3.2740464 ]
 [-0.01355366  0.02640752  0.02365567  0.00343474  0.01183316 -0.0034763
   0.0114348  -0.01429636  0.00212062 -0.00565831  0.03863485 -0.01447352
   0.00632979 -0.00237294  0.0126023   0.00478426 -0.06279311  0.01301672
   0.03008892  0.02173822 -0.02254586 -0.0196539   0.11107744  0.00408713
   0.02413674  0.01686395  0.00002581  0.02382567 -0.11426012  0.01509976
  -0.2917391   0.408373   -0.00640772  0.01241922 -0.01689347 -0.00716171
   0.01943016  0.02237821  0.00989712 -0.05902691  0.0170196   0.0034833
   0.00505911  0.4234618  -7.307186   -0.37797937 -0.00942973  0.0033684
  -0.02733453  0.01767418 -0.01876511 -0.01858431 -0.00132407 -0.02335657
  -0.01251872  0.01286948 -0.00519007 -0.3670496  -0.14199176  0.08555651
   0.02686034  0.01554343 -0.02701098  0.00923226  0.37608033  0.00817851
   0.01989958 -0.01920909 -0.04858041  0.00850589 -0.00913538  0.41097963
   0.01379253  0.00384992  0.38248324 -0.05053344  0.00460675  0.00969138
  -0.03588833 -0.00933413 -0.01590838  0.43250328 -0.02472873 -0.00917764]
 [ 0.25291547 -0.02788305 -0.02685442 -0.00049252 -0.03272012 -0.00342308
  -0.96114427  0.06324304 -0.02520477  2.3867507   0.15105681  0.1735079
  -4.0488973   2.3507414  -0.48304704 -0.27234995  0.1576173   0.00987782
  -0.22629784 -0.00659208  0.08112124 -0.26925865  0.00947991 -0.97978
   0.0097171  -0.15852968  0.04256276  0.05913627  0.4935241   0.21745105
   0.00738069 -0.03523232  0.06809787 -1.1328964  -0.01966791  0.02245338
  -0.17338006 -0.0247268  -0.09375771 -0.17462322 -0.01128584  0.07362616
   0.10396347 -0.01470875  0.10460198 -0.09227863 -0.02388393  0.2518968
  -1.2852387   0.12634481 -0.12425829 -0.022192    2.1521127   0.04928936
  -0.01955448  2.6756241   0.32746086 -0.05111352  0.50155926  0.0385169
  -0.00019909  0.18173102  0.07092138 -0.00634074  0.0201704   0.03569788
   0.05173917  0.16238719 -0.24676813  0.01520681  0.06759239 -0.0495828
  -0.02572914 -0.4936253   0.00350764 -0.17433304  0.18607706  2.616605
   0.05848597 -0.8634086   0.00264036 -0.01347717 -0.04991339 -1.2587786 ]
 [-0.05079639  0.00701878  0.00334661 -0.00477306 -0.00129392 -0.01087719
  -0.15789634  0.00719985 -0.019992    0.00668231 -0.20241424  0.12957627
  -0.02268778  0.00986005  0.02537757  0.03628571  0.08005834 -0.02070111
   0.0021594   0.2509291   0.00153321 -0.32787222 -0.48873854 -0.02498729
  -0.03836194 -0.10730102  0.00439147 -0.03007035  0.06211324  0.15946479
  -0.3405666   0.44777521 -0.01178904 -0.00024496 -0.01398727 -0.00604088
   0.02623183  0.24462987 -0.01074883 -0.6382012  -0.08306089 -0.10683008
   0.36067963  0.4149058  -1.6223383  -2.6356528   0.00760892  0.1853853
  -0.05659127  0.00073155  0.08791748 -0.00677021 -0.01031956 -0.0108227
  -0.03830725  0.01879505  0.2828155  -0.669391    0.05735727 -0.41695264
   0.29473832 -0.45343912  0.01771673 -0.16517176  0.35868472 -0.01400825
   0.07139073 -0.02387685 -0.1667451  -0.00029662 -0.0337232   0.52546906
   0.299826    0.01760816  0.43708616 -0.18450023 -0.07984856 -0.0066568
  -0.00152098  0.02104269 -0.02043987  0.3451957  -0.31286865  0.02439743]
 [ 0.01471138 -0.02596602  0.02827621 -0.00699707  0.17981094  0.01095241
   0.11912357 -0.01296021 -1.1336628  -0.00692995  0.03902074 -0.0385193
   0.03345262 -0.00283299 -0.0010871   0.00131716 -0.48927626  0.25598168
   0.05738639  0.00506971 -0.01316973  0.03513573 -0.01137316  0.03064274
  -0.00998936  0.0277189   0.279064   -0.0103496  -0.06481948  0.0084537
   0.00668042  0.00865452 -0.0160661   0.00168829 -0.02647789  0.00392087
  -0.3186981   0.00315788 -8.439266    0.00961696  0.0199916   0.01124622
  -0.01317692  0.00893406 -0.00763082  0.00850131 -0.01381764 -0.00174506
   0.00066489 -0.01058939 -0.00274823  1.1708118  -0.01120768  0.18825492
  -0.0028067   0.00742018 -0.00482224  0.01328033 -0.3315245   0.01650007
  -0.04508292  0.0271315  -4.760189   -0.01235003  0.01136169  0.19197483
  -0.0115033   0.03053733 -0.04858627 -0.0127075  -0.00914767 -0.00132091
  -0.00844668 -0.01329554  0.01140471  0.00817213 -0.04089204 -0.00435546
  -0.01326683 -0.01303416  0.00840971  0.01390975  0.00211651  0.00802526]
 [ 0.063761    0.01054709  0.01225318  0.0218862  -0.02341113 -0.00625367
  -0.07395498  0.01588939 -0.00069933 -0.00185658 -0.0013967  -0.08002541
   0.02309855  0.00143595 -0.00491204 -0.03863272  0.22757334  0.0086917
  -0.01355685 -0.13929439 -0.02540583  0.29136774  0.48484975 -0.19009417
   0.05575286 -0.0075183   0.00305763  0.04404706  0.13605414 -0.05259097
  -0.6379056   0.3125491   0.01889957 -0.03614259 -0.07897693  0.02644995
  -0.03075541 -0.21519437 -0.00917409  0.38507128  0.00870727  0.18178686
  -0.40182433  0.25779608 -6.113581    0.59375006 -0.01816915 -0.1427815
  -0.00907815  0.01264938 -0.07559981 -0.00786995 -0.01305679 -0.00783113
   0.06727491  0.00134803 -0.3378551  -0.17473291  0.262297    0.17939644
  -0.58468515  0.38760066  0.00899674  0.07923529  0.33134037 -0.0096173
  -0.02091036 -0.00608302 -0.102864   -0.07832635  0.00927541  0.31313518
  -0.14682603 -0.02960421  0.3291346  -0.10862044  0.04168551  0.00979879
  -0.03978471  0.01308433 -0.00196545  0.33579415  0.13894759 -0.03445641]
 [-4.9530883   0.00985199  0.02876299 -0.00100391 -0.04444252  0.01155009
  -0.15450422  0.00117945  0.00675221  0.00359089 -0.02554921  0.05116796
  -0.07817258  0.01441582 -5.6260858  -0.5531004  -0.7562224   0.01340642
  -2.5476103   0.02893918  1.550462    0.1306324  -0.0500039  -4.5174546
  -0.00767405  0.11021212 -0.03152842  0.01526466 -1.0898412   0.00846313
  -0.0310304  -0.01324563  0.0265004  -4.550559   -0.36303046  0.00314999
   0.11694769  0.01083144 -0.03974846 -0.15653905 -0.01691941 -0.05926533
  -0.09324975  0.00881003  0.05874551 -0.04227473 -0.00381094  0.2173619
  -4.3344946  -0.30086726 -0.04309956 -0.04671108 -0.00299478 -0.0201571
  -3.9162095   0.0187908   0.16403982  0.02392207 -1.6436267  -0.20861903
  -0.09791226 -0.01456519  0.01470736  0.11555427  0.00194114  0.00271178
   0.01747681  0.06620346 -0.10334314 -0.01468008  0.00926035  0.02472883
   0.01764669 -0.5827729   0.02876125 -0.23634975 -0.03882451 -0.00117566
   0.01606949 -3.5270984  -0.03334349  0.01636411  0.0486303  -0.00947659]
 [ 0.03423382 -0.76262087  0.6800668   0.7925952  -0.21751016  0.6745324
   0.10997041 -0.01682259 -3.8350263   0.00018538  0.05617065 -0.00030934
  -0.00948494 -0.00511099  0.01674133 -0.02270801 -0.24222232  0.11402588
   0.02418181 -0.00809588  0.01489326  0.04987054  0.01578449 -0.01779697
  -0.0419871   0.0544339   0.01072924 -0.0481059  -0.05060772 -0.01716279
  -0.01595002  0.0107661  -0.04220196  0.01437027 -0.09402407  0.6394601
   0.10112621 -0.01944681 -0.0259823  -0.03137751  0.03184099 -0.01258628
  -0.02225498  0.03150744 -0.00105766 -0.01159623  1.1913432   0.01231089
  -0.00203978  0.00155788 -0.02252495 -0.05103309 -0.00208071 -0.06700528
   0.03891494 -0.01394453  0.04056245  0.00556032 -0.1584781  -0.04417635
  -0.04704085 -0.00396976  0.03872102 -0.03419192 -0.02613411 -0.05411177
  -0.00302702 -0.02860939 -0.20967951  0.00637186 -0.05150441 -0.01432708
  -0.02357075 -0.04748739 -0.00060724 -0.13479707 -0.03104308  0.01710165
   0.0967684   0.01069678  1.6314545   0.00160753  0.00544976  0.01642769]
 [ 0.01445634 -0.00174638  0.00420274  0.00010839 -0.00165112  0.00382175
  -2.6807907  -0.00647227 -0.01215554  0.3000917  -0.02377884 -0.00930258
  -0.07164987  0.27964404  0.00405427  0.02520378  0.03929599 -0.00443517
  -0.01152959 -0.00864236 -0.04059496 -0.02849927 -0.02160665  0.02997991
   0.00270803 -0.00137804  0.01297789  0.01362603  0.01751583  0.00077114
   0.01132213  0.00292646  0.00499266  0.04635188  0.00411973 -0.00258562
  -0.00543318  0.01204305 -0.01647148 -0.02048928 -0.00865133  0.01882299
   0.04154369  0.01947824  0.01763994 -0.0043174   0.00190874  0.0013189
  -0.02441881  0.02603715  0.01934117 -0.00266248  0.29851612  0.01211766
   0.0043915   0.1970225   0.02321663 -0.02456232 -0.01651392  0.01028141
  -0.00267394 -0.02206255  0.04599374  0.00293911  0.01560664 -0.00290497
  -0.0187581   0.02553312 -0.08880112  0.01486385 -0.00826539 -0.00327999
  -0.00331414  0.00768839  0.01319753 -0.04013957  0.03239831  0.22050938
   0.02725258  0.00814368  0.02714909 -0.00181638 -0.00500834 -2.5280962 ]
 [-0.00041962 -0.00250012 -0.00993255  0.00976165 -0.00095914  0.00300541
  -5.261032    0.0075781  -0.00607156  0.31027117 -0.01315152  0.00675149
  -0.03404044  0.30579406  0.03152328  0.02676163  0.03782855 -0.00636212
  -0.00814883  0.01475657 -0.03140653 -0.01212349 -0.05388013  0.01908124
  -0.00224781 -0.01514162 -0.01327758  0.00862272  0.03565938  0.00009549
   0.03102056  0.02924776  0.01022359  0.055507    0.00467406 -0.00278279
  -0.00043541 -0.00590978 -0.01847819 -0.01821363  0.00042484  0.01581066
   0.00940964 -0.0058237   0.0175047  -0.00768665 -0.00315499 -0.02114614
  -0.0040954   0.01190524  0.00079871 -0.00789271  0.33082905 -0.00782053
   0.00209362  0.1912925   0.0212299  -0.01907209  0.03559576 -0.00444179
   0.01877923 -0.00831555  0.00062551  0.00343268  0.00665221 -0.0012755
   0.01253684  0.05465951 -0.00875151  0.00305614  0.00752341  0.00519693
   0.00366357  0.02930697  0.00293185 -0.22399338  0.01096055  0.20178248
   0.03234617  0.0193268   0.02395469 -0.00086689 -0.00264413 -2.1382248 ]
 [-0.11419369  0.01088757  0.01313559  0.00168142  0.02125512  0.01514623
   0.09074115  0.01977661  0.00322913  0.00737827 -4.538514   -5.58222
  -3.820188    0.01085731  0.03511773 -0.0902452   0.01452386  0.00722615
  -2.8404977  -0.12181813 -0.00620021  0.22408915  0.16859563  0.21002766
   0.00056382 -5.6512547   0.00248267 -0.0149787   0.31175542 -6.4394135
  -0.14517021 -0.04857202 -0.00857877  0.01443535 -3.8217294  -0.00788685
  -0.02688713  0.02920485  0.02748212  0.16967733  0.01908438 -0.30415154
  -0.2526015  -0.00181558 -0.01905989  0.19007182 -0.01678026 -0.0435597
  -0.01144309 -0.00091572  0.03363892  0.03185924  0.01053892  0.01774979
   0.00928503  0.00764042  0.5885281   0.10825384 -1.0848628   0.68044674
  -0.35660025  0.12365595 -0.0120073  -5.6654973  -0.03722513  0.00330134
   0.00572013  0.04983963 -0.20655817  0.01888223 -0.01614666 -0.01126221
  -0.14156973 -0.08232599 -0.03698475 -0.1400601  -7.0470495   0.00144136
  -0.01066616  0.00511716 -0.0286101  -0.00951735  0.022749   -0.01108912]
 [ 0.00112566  0.00227447  0.0040323  -0.01264964  0.03513815 -0.00853373
  -0.02280948 -1.7281811  -0.01100854 -0.00635952  0.00522827  0.00600924
   0.00510415 -0.00511305  0.02881776  0.1064946   0.05302968 -0.01543485
   0.00287037 -0.00394847  0.02048602  0.00038527  0.00974705 -0.04125721
  -1.8396176   0.01483531  0.00862546 -2.3222058   0.03884716 -0.00509083
  -0.00375209 -0.00566911 -1.6010575   0.01713164 -0.03059818 -0.01483138
  -0.02994398 -0.00372597 -0.0128685   0.01803314 -0.20987366 -0.00033393
   0.03117816  0.02855088  0.00890104  0.04326722 -0.01781042 -0.00259258
  -0.01307958 -0.00509344 -0.02772308 -0.00484306 -0.00262904  0.01267389
  -0.00962775 -0.01218345 -0.0273153   0.01849191  0.06584638  0.01967928
   0.02884303  0.00049148  0.00015738  0.02943362 -0.00986187  0.00532722
  -0.1469625  -0.0547822   0.12831312 -0.14583205 -1.3586888  -0.01508167
  -0.00765718 -2.9544632   0.01758193 -0.18251267  0.02296046 -0.0035508
  -2.4624856  -0.00300984 -0.04531481  0.01599831 -0.03660952 -0.02023106]
 [ 0.00182809  0.00530714  0.00056213  0.00234756  0.0116264   0.00707476
   0.0105639  -0.00439024  0.00207251  0.00706014 -0.03659134 -0.01263566
  -0.02609356 -0.00168633 -0.0081126  -0.01588408  0.01536138 -0.01526286
  -0.02738347 -0.01933535 -0.01203244 -0.02076661  0.3808996   0.0172029
   0.00257509 -0.01924305  0.0098762  -0.02924922 -0.02188412  0.01720199
  -0.18162791  0.13309851  0.01856055  0.00461534 -0.06249657  0.00749984
   0.01116019 -0.03405391 -0.00433648  0.02076111  0.0398754   0.05306407
   0.07913445  0.17507045 -5.1519876   0.02208439 -0.0097403   0.00640322
   0.0091074  -0.00425423  0.01702427 -0.04959936  0.00468293 -0.0017448
  -0.01548141 -0.00815115 -0.05238722 -0.17772388 -0.00802646 -0.04174068
   0.05059598 -0.03146177 -0.00879762  0.00494637  0.13689916  0.01082336
  -0.00822272 -0.00301837 -0.037114    0.00452595  0.00047958  0.16867581
  -0.03364043 -0.02408364  0.17613196 -0.01051886 -0.01175159 -0.00534655
  -0.02230571 -0.00451626 -0.00658207  0.19136897 -0.00874717 -0.00830929]
 [-0.0414201  -0.00613272  0.00939476 -0.00937099  0.23424007 -0.00744476
  -0.19243242 -0.00963361  0.09052956 -0.00401409 -0.05732121 -0.02634326
  -0.02911395 -0.00270014 -0.00075316 -0.00180746  0.11187547  0.24707821
  -0.0106417  -0.00810859  0.02282459 -0.04450457  0.01363512 -0.05996163
  -0.00732039 -0.00180049  0.12720756 -0.00760091  0.20667683 -0.02017488
  -0.026956    0.00818978  0.00527566  0.0205012   0.03406691 -0.00241601
  -0.5085614  -0.01417925 -4.8557315   0.02162029 -0.00164778  0.02761863
  -0.01037053  0.00548928  0.02145981 -0.00430231 -0.02426269 -0.0243313
   0.01906637 -0.0101505  -0.01078397  1.3735201   0.00456395  0.24379711
   0.00316007 -0.00448628  0.01803888 -0.00917871  0.34656137  0.06014301
   0.04221889  0.02139592 -3.0449867   0.01619183  0.01064419  0.26173934
  -0.00454401  0.03363396 -0.02415067 -0.01706939 -0.01044405 -0.00036858
  -0.00186459  0.02007116  0.01786715 -0.00957382  0.04666877 -0.01069978
   0.02132938 -0.02627693 -0.04818663 -0.00931468 -0.01442064 -0.0161583 ]
 [-0.00016004  0.32645997 -0.03047406  0.04292465 -0.0214473   0.05100412
   0.0325603  -0.024646    0.3707343   0.00123048  0.01572042 -0.02240113
   0.01646453 -0.00847434  0.00819632  0.03126997 -2.896479    0.12186152
   0.01994971 -0.01613643  0.01289633 -0.01218888 -0.0019952  -0.03725924
  -0.06352918 -0.01906096  0.1207351  -0.02616142  0.0406906   0.00583629
  -0.02296457  0.00052293 -0.01576246  0.01326621  0.0204569   0.05056303
  -0.01673895 -0.01230675 -4.1620946   0.01850464  0.04641883  0.02380011
  -0.01362193  0.01425547  0.00796553  0.01775785  0.16999601 -0.01466785
   0.01594367 -0.02121563 -0.00366137 -0.03755419 -0.00155234 -0.00759387
  -0.00018489 -0.00333999 -0.05867056  0.00465357  0.02942465  0.04875803
  -0.01238265  0.02153561  0.17233308  0.00847159 -0.00569668  0.00198117
   0.00885068 -0.02287896  0.07085875  0.02003442 -0.0264511  -0.00444444
   0.01104833  0.01089483 -0.01915039 -0.16352205 -0.0171907  -0.01034379
   0.0692165  -0.00402281 -0.16892987  0.02419647 -0.02419681 -0.00820843]
 [ 0.21777834 -0.01136187 -0.01516055 -0.00539661 -0.00056482  0.01195158
  -1.567875    0.00508019 -0.00619972  0.09592775 -0.02291174  0.05254952
  -1.8890941   0.10398693  0.01404643  0.09303062 -2.7304482  -0.00431215
   0.0328083  -0.00824926 -0.05504763  0.07304758 -0.00289413  0.09910354
  -0.02693191  0.03984654  0.00436762 -0.03132302 -2.5216556  -0.00560689
  -0.00780426  0.00145568  0.00260286  0.09512792 -0.0610882  -0.0008459
   0.04372504  0.00917964  0.02012471  0.0387505   0.00347182  0.02132209
  -0.02397578  0.00096496 -0.01513178  0.00757178  0.00737054 -0.05947614
   0.10673305 -0.26724496  0.0476888   0.01248615  0.1381691  -0.01162927
  -0.07133414 -0.23614563 -0.00558457  0.02758782 -3.4379323  -0.00197173
  -0.01921585 -0.0203042  -0.03934677  0.01673704 -0.00708055  0.0051056
   0.00469572 -0.05170216 -0.08953686 -0.01423107 -0.01453157 -0.00423117
  -0.00969929  0.10831489 -0.00409407  0.00170615 -0.06485262 -0.23453562
  -0.0176793  -0.13931738 -0.00767447 -0.00411943 -0.0051825   0.40263075]
 [ 0.00374401  0.00603891 -0.01198012 -0.00427868  0.00050741  0.00378877
   0.00625591 -0.00692502 -0.0081747  -0.00145284 -0.01752497 -0.02178228
  -0.00111295 -0.00561839  0.00820153 -0.00309576  0.03947466  0.00663211
  -0.00532767 -0.02880833  0.011902    0.13582982 -8.4665575  -0.01926291
   0.01473659  0.00300005  0.00570852  0.01539244  0.02921444  0.00665904
   1.2078472   0.03812058  0.00977449  0.00329701 -0.00765028 -0.01594606
  -0.01200426 -0.01459757 -0.00619754  0.03979107  0.00199032  0.02183991
  -0.03958205  0.07449687 -1.7904166   0.22461693  0.00143796 -0.02165265
  -0.03633947  0.00482625 -0.03593085 -0.00105437 -0.00318375 -0.01133032
   0.01960014 -0.00625239 -0.01758039  0.00181424  0.00633903 -0.02861106
  -0.07331001  0.05939212 -0.01553313  0.00976018  0.06722952  0.00189429
  -0.01701239  0.00227302  0.05800452 -0.02226887 -0.0171068   0.0458206
  -0.01297219 -0.0246058   0.05141449 -0.15658592 -0.00340049 -0.00112317
  -0.01481041  0.00245384 -0.000826    0.06707589  0.01551065 -0.00166347]
 [-0.02132697 -0.01960117  0.00704515 -0.01406343  1.7467376  -0.01381173
  -0.27291432 -0.00588867  2.8808868   0.01051023  0.01851751 -0.11629189
  -0.02217709 -0.00311658 -0.04611116 -0.06956571 -0.7552034   1.5650916
  -0.01782961 -0.00811686  0.0438401  -0.09190504  0.09471937  0.1242222
  -0.01309174 -0.03720746  1.7058839   0.01394182 -0.00533722 -0.0673354
  -0.00617106 -0.00911517  0.02656148  0.00043392 -0.03960753 -0.02146862
  -1.1369269  -0.00188945 -3.3323317  -0.00994643  0.00315037  0.06539201
  -0.02976762  0.00763598  0.01339736 -0.07317428 -0.11296761 -0.01061709
   0.1618541  -0.01777334  0.08685407 -0.49132928  0.00895775  1.6052365
  -0.03057851  0.01170397 -0.02085374  0.02258745 -0.16558759  0.02640878
   0.08131721  0.02306828 -4.027871    0.06351361 -0.02024873  1.8689526
   0.00979609 -0.03039146 -0.05348099  0.04267519  0.02945456  0.01110212
   0.01151881  0.03567151  0.01794705 -0.11695257  0.10932439  0.00453849
  -0.05850473 -0.0062843   0.14234154 -0.00278021  0.0590962  -0.00477001]
 [-0.01461447  0.71937835  0.16702053  0.18181145 -0.02236894  0.23512273
  -0.04359337  0.02597739 -0.6225375  -0.00335419 -0.00027992  0.02439889
  -0.00848407  0.00587345  0.01532227  0.01747865  0.10638748 -0.02055278
   0.01489568  0.00156194  0.0029724  -0.03315634  0.00343106 -0.01035281
   0.01425781 -0.02675268  0.0229014   0.01981316  0.01557098 -0.00165843
  -0.01286682 -0.00059793  0.02479538 -0.01473649  0.02672872  0.18733189
   0.0107723   0.02274096  0.04154719 -0.00926754 -0.00944214 -0.01608542
  -0.00546225 -0.00565695 -0.01535452  0.02154362  0.32087052  0.00665536
  -0.01224262 -0.00814351 -0.03453595  0.0338115   0.00715828 -0.00531413
  -0.00259994  0.00401354  0.03925635 -0.00076285  0.04846369  0.01238551
   0.00517293 -0.01688926  0.00064209  0.04098449  0.00549027  0.01318648
  -0.00198841 -0.01046486 -0.00964842  0.00051745  0.00060979 -0.00672974
   0.01605399  0.01831722 -0.0013668  -0.27974972 -0.02708356 -0.01347165
  -0.00584486 -0.00861618 -0.6506174  -0.00171738 -0.00641845  0.00170388]
 [ 0.02524743  1.1591482   0.846538    0.95363635 -0.14396596  0.8430967
   0.06063668 -0.00826928 -1.2737796   0.00269986  0.02304485 -0.01710986
  -0.01610365 -0.00403225  0.00677648  0.03065096 -0.06184208  0.01055585
   0.03135566  0.01883002  0.00606534  0.03035522 -0.00330359  0.03004209
   0.01608033 -0.01379557  0.00789161  0.00907982 -0.03235482 -0.00372892
  -0.01470923  0.00491562 -0.01637661 -0.00194981  0.00297355  0.97648335
   0.05304232 -0.00729487  0.040581   -0.02519062 -0.02292056  0.00524282
  -0.00889619  0.00714104  0.01211541  0.0063641  -3.143351   -0.01349826
   0.02636843  0.01450005  0.00157271 -0.0355106  -0.01213293 -0.0636518
  -0.00269453 -0.01320976 -0.01823185  0.00790288 -0.04698518 -0.01714881
  -0.02084976 -0.00870116  0.05423225 -0.01966354 -0.00227328 -0.08559679
  -0.02667839  0.04101635 -0.15002257 -0.01309328 -0.01800285 -0.00806521
  -0.00224974 -0.01323917  0.04740795 -0.06353201 -0.02122115  0.01732384
   0.02911074 -0.00193095  0.42551675 -0.00095207  0.00717589 -0.00680702]
 [-0.03593959 -0.01328768 -0.00672202 -0.00582823 -0.01122715 -0.01451534
  -0.9199413   0.040261    0.00728511  2.408341    0.0148962  -0.13836257
  -1.1257286   2.441591    0.01802476 -0.18277656 -1.3215142   0.04702979
   0.06892759 -0.04848871 -0.24072284  0.28230774  0.0374769   0.09788167
  -0.02184738  0.11138692  0.02583252  0.02163909 -0.8875461  -0.14698683
  -0.03325038  0.02021075  0.02582344  0.08702539 -0.12463739 -0.0088022
  -0.08725675 -0.03025783  0.02990185  0.24585696  0.01857325  0.02782555
  -0.06874034  0.03462169 -0.17628077  0.06700154 -0.02492777 -0.01804257
   0.03510079 -0.00378642  0.00634094 -0.04002041  2.2786748   0.00054614
   0.00619987  3.1640887  -0.46501744  0.03380952 -1.7156173   0.09828795
  -0.11932466 -0.154966   -0.16391486  0.11046716  0.01665696  0.00329512
   0.00555079 -0.22299527  0.03003564  0.02378999  0.05163584  0.03741867
  -0.06465729  0.09610583  0.02017874 -0.03757192 -0.12207185  3.059334
  -0.02503757  0.05733678  0.0335289   0.05768485  0.02315106 -6.1669493 ]
 [ 0.07956651 -0.01344891  0.01035056  0.00363644 -0.01662828  0.01922209
   0.01674573 -0.02041799  0.01385874 -0.01647335  0.02942856  0.1362393
   0.01926903 -0.00073443 -0.07900936  0.11589963  0.01943433 -0.00898213
  -4.377727   -4.416922   -0.00799404 -0.8287075   0.21162981  0.18977214
  -0.01672785 -0.0744828   0.03725742  0.01469115  0.11079177 -0.04900737
   0.0323844   0.00196771 -0.0661612  -0.03232417  0.0175251   0.01151228
   0.01984658 -0.45529434 -0.02085088 -3.6906235  -0.01498353 -0.09615055
   0.2542289   0.0057407  -0.7029635   0.13375466  0.00447375  0.05022968
   0.17373602 -0.01046778 -6.7260284  -0.01659087 -0.01841354 -0.03045771
  -0.07795894 -0.01440434  0.19049309 -0.0130431  -0.6311887  -0.23635402
  -6.5534472   0.0832541   0.02613442  0.00901749  0.04517554  0.01182197
   0.13262713 -0.16995011  0.00705511 -0.86013937 -0.03532213 -0.01390707
  -0.48697522  0.05104451  0.01333508 -0.03021431 -0.00824074 -0.00428031
  -0.02899315 -0.04317471  0.02269674 -0.00839806  0.31424823  0.00353473]
 [-0.02029783 -0.00407843  0.00492236  0.00382988  0.00789977 -0.00240031
   0.00573888  0.01468756 -0.00470032  0.00520972 -6.8549724  -5.06593
  -0.94437563  0.0088904   0.0159004  -0.01111525  0.01039014 -0.02877315
  -2.9699645   0.02306276  0.02257035  0.04757186 -0.04083943  0.08430416
   0.00941331 -4.7125783   0.00244264  0.01199282  0.04912921 -1.990954
  -0.00631614  0.0173968   0.00651615  0.01870946 -0.8768249  -0.01102374
   0.00665659  0.00387524 -0.00308178 -0.07988916 -0.00515075 -0.09888192
   0.0380052  -0.00695426  0.02984799  0.01983798  0.00297423  0.20125088
   0.01554257  0.00686304 -0.02639003 -0.00817574  0.00246769 -0.00017125
  -0.00568091 -0.01076879  0.03122661 -0.01695281 -0.23776214  0.06755506
   0.067983   -0.02761225  0.0158881  -4.8085136   0.00542666  0.00951642
  -0.00458572 -0.00560216 -0.15139444 -0.00287031 -0.009573    0.01793979
   0.03714039 -0.01552973  0.00011291 -0.06599784 -1.0864851   0.00427988
  -0.02766326 -0.01062016 -0.01153838  0.00359644  0.02085908  0.00291702]
 [ 0.00275925 -0.01140939  0.00699409 -0.02179361 -0.01291434  0.01047397
   0.00128952 -0.03318101 -0.00957033 -0.01132595  0.07202743  0.07914569
  -0.00265874 -0.00449241 -0.02532203  0.10815144 -0.04426311 -0.01805865
  -0.82803786 -0.35415858 -0.02212534 -0.46932298  0.158984    0.03283897
  -0.03355069 -0.12824154  0.01184371  0.02341168  0.03045879  0.06207589
  -0.01531564 -0.01028333 -0.04568897 -0.01424668 -0.1465743  -0.01885803
  -0.00822744 -0.23779267  0.01254866 -1.8202894  -0.02348266 -0.04786713
   0.12952568 -0.02225396 -0.28487426  0.07345272 -0.01751705  0.02022228
   0.031472    0.02002213 -3.7646625   0.00236526  0.00557412  0.0266656
  -0.00378097  0.00190762  0.26623502  0.03579528  0.10777181 -0.18323608
  -5.287734    0.03975991  0.00607005 -0.07945785  0.04208631  0.00565329
   0.08097783 -0.08425535 -0.07711568 -0.382624   -0.02448055  0.00033402
  -0.1960286   0.06197711 -0.01080954 -0.14580832 -0.0300483  -0.01342002
   0.02953848  0.00745146  0.00216514 -0.01231515  0.00814981 -0.00853712]
 [-0.05458007  0.01732675  0.00778062 -0.00916284 -0.03335894  0.05313731
   0.8247932   0.0046987  -0.0229464  -0.08388591  0.2434126  -0.07443903
   0.4889757  -0.07596426  0.01720277 -0.03381537  0.0859092  -0.04210998
  -0.10535263  0.00498655 -0.08023646 -0.15899438 -0.07044806 -0.07182261
   0.02167641 -0.28697222 -0.01806235  0.02477798  0.4313047   0.06886285
   0.00862768  0.01255439 -0.03154868  0.05173285 -0.00173024  0.00339573
   0.03724051  0.00074816  0.00824315 -0.37517232  0.03480827 -0.07236969
  -0.02833753  0.01500602  0.03966196 -0.09636373  0.00453168 -0.24498229
  -0.8181612   0.05840626  0.04551524 -0.00428339 -0.08685333 -0.04305358
   0.06271224 -1.1568232   0.09355874  0.00802845  0.22065657 -0.30279133
   0.00664095 -0.08425722  0.02011292 -0.24018213 -0.0278849  -0.04423115
   0.00410199  0.06549808 -0.12944561  0.01655807  0.02005769 -0.00071858
   0.00475085 -0.18222101 -0.02090843 -0.24010028  0.04215927 -0.27102083
  -0.02808404  0.03558474  0.02131385  0.00119008 -0.00080787 -4.068069  ]
 [ 0.0091201   0.00240731 -0.00635466  0.00961039  0.0058259  -0.00709355
   0.05216067  0.0193665  -0.0023564   0.00017107  0.03244425 -0.01641821
  -0.00298359  0.00708882 -0.01869377 -0.00624762 -0.06364412  0.0075761
   0.05364141  0.00902961 -0.01157277 -0.04599316  0.06513802  0.00988996
  -0.00295702  0.01266666 -0.00265366 -0.00582224 -0.11212353  0.05029765
  -0.26707482  0.25176352  0.00573275  0.00049913 -0.00282902  0.00905753
   0.02012048  0.00665037  0.00622443 -0.05209962 -0.0098454   0.02573029
  -0.00062013  0.30407202 -3.98784    -0.41759244  0.01845235  0.01525779
   0.03114984 -0.01014627  0.01439503 -0.01991235 -0.00715203 -0.0026363
   0.00201867 -0.00688414 -0.01252933 -0.3461332  -0.12830476  0.03952557
   0.04227953  0.03672813  0.01022318 -0.00808312  0.23448773 -0.01863741
   0.0064683   0.00487376  0.04306754  0.01875184 -0.00760651  0.29678744
   0.02819343  0.01513109  0.307856   -0.01351163 -0.00957264  0.00486327
   0.01910695 -0.00034684 -0.00290601  0.28898987  0.00358667  0.0071758 ]
 [-0.11801854  0.00933356 -0.00552083 -0.00571598 -0.00620485 -0.00581019
  -0.05935028 -0.01560236  0.01430299  0.01408084 -4.0696697  -4.6549044
  -4.3269033   0.01451067  0.03229893 -0.02303263 -0.07041034 -0.00910884
  -3.0872083  -0.0114563  -0.01004639 -0.19078608 -0.28923705  0.09477854
  -0.00512571 -5.231519   -0.00723837 -0.02027842  0.19627751 -5.1070366
   0.07992046  0.02955598 -0.00624134 -0.02680618 -2.9777524  -0.00018294
  -0.02077675 -0.00215338 -0.0069985  -0.5571881   0.0348107  -0.27138203
   0.05445816  0.03779128  0.00643739 -0.183392   -0.0062694   0.15181608
  -0.03243758  0.01692538 -0.01903453  0.01528553  0.02275033  0.03137248
   0.00921032  0.01103512  0.7550947  -0.1539663  -0.33729327 -0.0995098
   0.05629381 -0.24299136 -0.00799995 -4.961231    0.03448955  0.01404
   0.01854664 -0.0026457  -0.07224289  0.0235898   0.00388873  0.03160132
   0.00892111 -0.04050867  0.00066014  0.03061976 -6.0697722   0.00273434
  -0.00731568  0.04247241  0.00214417  0.01775528  0.02967083  0.04644451]
 [ 0.02670919 -0.00686265 -0.01185654 -0.02454684 -0.02021015 -0.0149001
   0.00233139 -0.03047439 -0.0072617  -0.07606444  0.13225468 -2.3871093
   0.00669835 -0.05741572  1.1906363   0.10973739  0.0899524   0.02506358
   0.03221439 -0.00774321  0.07970143  0.0605256  -0.08453999  0.23168665
   0.00418236  0.04997529 -0.00820695 -0.04793473 -0.02216897 -0.02830948
  -0.0386555  -0.06005245 -0.05289607  0.88647306 -0.13583243 -0.01911047
   0.00767362 -0.0129921   0.02279017  0.13685684  0.00287841 -0.02287908
   0.02970687 -0.002945   -0.03777443 -0.15154763 -0.01755295  0.09453622
   0.40636456  0.5514986   0.02453853 -0.03584047 -0.07821131 -0.00891223
   0.27081233 -0.25960767 -0.07304703  0.04011915 -0.01019085  0.09950636
  -0.11786047 -0.03151165 -0.08729123  0.0180765  -0.02003344  0.00700275
  -0.00710652 -0.11968205 -0.17383842  0.03932062 -0.01130841 -0.00344444
   0.0151596   0.25214657 -0.02000909 -0.11004846 -0.08301995 -0.22209316
   0.00716903 -0.0058238  -0.05258067  0.02592177  0.1445256  -0.02542341]
 [ 0.10886433 -0.01601925  0.00440099  0.0022305  -0.01712035  0.00094076
   0.06716458  0.00413463  0.00595953 -0.02309495  0.31880686 -0.00594687
  -0.00435214 -0.00363181 -0.04305059 -0.03153943  0.04242518 -0.04409447
  -0.08063013 -0.21157742 -0.05496302  0.2989968  -0.4085098  -0.11467515
  -0.01435842  0.09010451  0.00843096 -0.03050421 -0.11417251 -0.4731572
   0.1138848  -0.458383    0.00217485 -0.09634135 -0.19772723 -0.00067697
   0.08588678 -0.18577254  0.02572883  0.28367513  0.05186476  0.19283566
  -0.25075233 -0.18508868 -0.01243668  0.15805252 -0.01097465 -0.20854628
  -0.00807155  0.03236552 -0.01205448  0.03069883 -0.00000098 -0.00357936
   0.03738394 -0.01648899 -0.30284593 -2.3165975  -0.18369657  0.17007367
  -0.4122551   0.39477342  0.0115948   0.14082974 -0.7483281  -0.02094067
   0.00051933 -0.08870282 -0.11262192  0.00547852  0.02785185 -0.1050848
  -0.22238395  0.0479928  -0.19507532  0.01416094 -0.03363809  0.00323673
  -0.04336494  0.01094983  0.021838   -0.16658223  0.19963889 -0.08330107]
 [ 0.04284273  0.01416487  0.06337366 -0.0578493   0.00965641  0.04779439
  -0.00330966  1.0692713  -0.00256858 -0.02577955 -0.01769203 -0.05966307
   0.0250739  -0.01045435  0.01902601 -3.4470558   0.02937749 -0.02081988
   0.08827705  0.170021   -0.0237521   0.01656501 -0.05375913 -0.02066818
   2.669488    0.09531169 -0.01292724  1.0283542   0.00357582 -0.01493188
   0.01540174  0.06824671  1.0216838   0.00023755  0.07897991 -0.09465774
   0.00576067  0.08095081 -0.00472942  0.20587051 -0.23166423  0.04186001
  -0.04023705 -0.01020186 -0.08549491  0.0593221   0.04045296 -0.17749837
   0.02510737 -0.01075715 -0.00147474  0.03750832  0.00305067  0.00474319
  -0.02675381 -0.00506352 -0.05272273 -0.00264373 -0.09327932  0.0747321
   0.12217897  0.02351911 -0.00441493 -0.04647078  0.00240655 -0.05454614
  -0.10772619 -3.8732586  -0.05068247 -0.11576028  1.0402689   0.00201769
   0.0427828  -0.11288389  0.04508206  0.07840003  0.03321151 -0.00877787
   0.81761783  0.01350433 -0.18807751 -0.01152475 -0.00068822  0.01394854]
 [-0.00548118  0.00449272 -0.00447595 -0.03150891 -0.02446849 -0.00740837
   0.05873403  0.01317762 -0.00333289  0.00703795 -0.19194967  0.2626864
   0.04736629 -0.01497519 -0.04181987  0.01818348  0.0909913   0.0302688
   0.09176113 -0.00719757 -0.00306278 -0.20491318 -1.2793128   0.02171201
